elements: [Co, Fe, Mn, O]
E0: [0, 0, 0, 0]
deltaSplineBins: 0.001
embeddings:
  0: {ndensity: 2, FS_parameters: [1, 1, 1, 0.5], npoti: FinnisSinclairShiftedScaled, rho_core_cutoff: 5, drho_core_cutoff: 5}
  1: {ndensity: 2, FS_parameters: [1, 1, 1, 0.5], npoti: FinnisSinclairShiftedScaled, rho_core_cutoff: 5, drho_core_cutoff: 5}
  2: {ndensity: 2, FS_parameters: [1, 1, 1, 0.5], npoti: FinnisSinclairShiftedScaled, rho_core_cutoff: 5, drho_core_cutoff: 5}
  3: {ndensity: 2, FS_parameters: [1, 1, 1, 0.5], npoti: FinnisSinclairShiftedScaled, rho_core_cutoff: 5, drho_core_cutoff: 5}
bonds:
  [0, 0]: {nradmax: 6, lmax: 3, nradbasemax: 11, radbasename: SBessel, radparameters: [5.25], radcoefficients: [[[3.1656313144334378, -1.5523958473952728, 0.97178116085278032, -0.080193908907290806, 0.31392392240350125, -0.30638051160938579, 0.067205104805186724, -0.073372377380617665, 0.14508054443974058, -0.15663986370958816, 0.087632374807573882], [2.2052226636813157, -0.45031884815672829, 0.16210825047469532, -0.13522685603601933, -0.8972664870236926, 0.78126942464563598, -0.33376996469325698, -0.75702471193780285, 0.98025093329448565, -0.40022408583900537, -0.13213702799290922], [1.9019756359052045, -1.639466707094263, 0.85309897962580039, -0.29880191715079274, -0.22832584393443778, 0.49643752480943393, -0.3569351426057365, 0.17901588880607089, -0.045990403477745294, 0.064204541898626136, -0.052428755083540016], [1.3555168519138148, -0.62977277634903817, 0.040986970494622306, 0.74795836074775168, -0.38811591593032663, -0.057422211175976366, 0.55230965495587836, -0.47502564505354711, 0.38600784452967501, -0.20773897259612556, 0.22159226329803489]], [[-0.25505664678993312, 1.4648281046920635, -1.0112665885083167, 1.7958196674987255, -0.68558736234904549, -0.46592212073103584, 0.65345467223211218, 0.10050082246178522, -0.031067260868983662, -0.10525069897835594, 0.10255943861248723], [-0.1862847546573333, 1.4121938550118747, -0.92707479124093195, -0.78162511224951603, 0.6284228986165149, 0.082235621409849052, -0.45003287152288007, -0.41106701264421297, 0.078097649026704588, 0.57771770844008064, -0.33879410736546622], [-0.32566853336232116, 0.59269349837871488, -0.31097888724090206, 0.23386677838363354, -0.086099304583270725, 1.1588291397285526, -0.36851179012049579, -0.56663903856582043, 0.6273133043924134, -0.25406972648619081, 0.15869707215824239], [-0.18911859380210577, 1.0514170000907705, -0.54389442868706184, -0.30646064938291245, 0.080657694181437645, -0.67327137625877498, -0.2061006494438227, 0.17626894264790094, -0.2983232090616072, 0.10786266222675094, -0.058138176885464743]], [[-0.23961353734352114, -0.61108182662316968, 1.225590024467317, -0.099522197194843079, 0.29923493450050243, -1.2304023827080091, 1.2214550176126182, 0.55647990711549267, -0.41486328284124518, 0.18093933404556967, -0.046434840043430327], [0.076717078499833044, -0.035391326553387774, 0.84934479553888653, -0.1704623724191896, 0.45082792426065965, -0.077764640456196715, -0.66187651017425242, 0.77868503516274179, 0.43156202116161102, -0.61184361212462701, -0.080497484131602945], [-0.21420813781258838, -0.31787053284748085, 0.99981501938382977, -0.055571801779153628, -0.0042497024068801036, -0.23112358363420835, -0.46392722617337895, -0.31932878404095344, 0.38341679535460094, 0.072100229344892477, -0.0071133174780697384], [0.31767693842356848, 0.22368877900618181, 0.76741279512185123, -0.18860642524076751, 0.29238132243961767, 0.46183100220137435, 0.17714912469216582, 0.088677568919656488, -0.23598565070360678, 0.25608285574792866, 0.24523415665969461]], [[0.33259355098728688, -0.040951368835546405, 0.037494360686852156, 1.1773722089903464, -0.72831385796154335, 0.14696650236018008, -0.51723828715155762, 1.053695597977514, -0.37783404122866898, 0.07385862497994633, 0.069937840793884418], [-0.12702122082520906, 0.032346739336121894, -0.073915882419158654, 1.0945265396481849, -0.57643935189248108, -0.46750914536381172, 0.63403730611728693, -0.1835638218595495, 0.24141132308939364, -0.2345022409956255, -0.14449034679864456], [0.31112795996126885, 0.059921650147644993, -0.30965606740035284, 1.0691506330280733, -0.49721321077759101, -0.16595464065788842, 0.039200966534384596, -0.26567656881700225, 0.070070959281340731, 0.059790483791137175, -0.035299560348329775], [0.00012421029970848395, 0.0023663460807990819, -0.0081143385951291339, 0.96504802835510795, -0.013338120821963425, 0.0033846611574241074, -0.00012563826842758763, 0.0020200356244516695, 0.0029612972655665816, 0.0012105157967827217, -0.0023205352865448819]], [[0.21529570932987768, -0.07588372751525467, -0.081916702244902093, -0.44588987627851956, -0.58034584838503411, 0.15711698151607909, 1.56135136429453, -0.26681598391124267, -0.71844729342619451, 0.46229299877326019, -0.32099516717785165], [-0.14560238915876053, -0.2151783205098034, -0.19656257870826677, 0.052278285839108603, 1.0857811469323588, -0.16512581273276247, -0.34138947220035526, -0.16546375912750716, 0.16795385886517888, 0.089682096758219018, 0.21387042100090858], [0.11523643380111286, 0.024569501930634223, -0.23674139857947676, -0.34211576291376011, 0.52378236487767615, -0.35495927147880985, 0.12886100986460022, -0.46822393057264189, 0.19486994244922101, 0.52860348910402877, -0.40761696379138479], [0.00027037324906116088, 0.00044415696362591894, 0.0030972784669988317, -0.010581445482486804, 0.959003377257586, -0.015181642043886381, 0.004563136056406303, 0.0013650704422433053, 0.0044258546065575714, 0.0028844329351117746, 0.000837728429261969]], [[-0.20385695361349368, -0.37513484490678883, 0.028183300791255753, -0.10358995583818972, -1.1060640200131828, 0.70055016173713791, 0.41538363495621794, -0.42515543338330847, 0.12888773791917746, 0.026997959898141584, -0.18887979281653905], [-0.03525760481542746, -0.0035327577019285163, 0.026658299879818156, 0.012464147468714099, -0.012876771334845931, 0.95676711707908435, -0.094597947920716477, -0.12567389015642061, -0.062216469847025342, -0.17546157098161921, -0.17319944224897169], [0.00063524224964461851, 0.0012716329982940088, 0.0004262673976682277, 0.0033721035105757557, -0.01271536209172658, 0.95297180183749008, -0.017544122630317408, 0.0048400877988558355, 9.9875764882790557e-05, -1.6353475211790712e-06, -0.0013735133220073865], [0.00063524224961790941, 0.0012716329983326225, 0.00042626739764816123, 0.003372103511090632, -0.012715362093064925, 0.95297180183728047, -0.017544122629592093, 0.0048400877984727747, 9.9875764889106278e-05, -1.635347521204429e-06, -0.0013735133221054435]]], prehc: 10000, lambdahc: 1, rcut: 7, dcut: 0.01, rcut_in: 1.0002, dcut_in: 0.10000000000000001, inner_cutoff_type: distance}
  [0, 1]: {nradmax: 6, lmax: 3, nradbasemax: 9, radbasename: SBessel, radparameters: [5.25], radcoefficients: [[[3.8521264221123377, -1.7777037041363462, 1.9805203458448075, 0.10571306540424232, 0.51305385299333295, -0.068384848352240082, 0.045339639596622183, -0.16896140724729133, 0.14662709231586635], [2.928132228302593, -0.34718579565592556, -0.26863209175873631, 0.52640937897814721, -0.49912907022807396, -0.12686161506199137, 0.15517981368358871, -0.10036253060844473, -0.020346180186353952], [2.1502350282134524, -0.099642699037468793, 0.14477332691886857, 0.66927334499489843, -0.29094817499502756, -0.097857186926409948, -0.053938696840052973, -0.31776881455133127, 0.21706793466217508], [1.1944215395512496, -0.31407116059788931, 0.14091649789057109, 0.5837232172411877, -0.34338416092314356, -0.039467431950062026, 0.39709966631282467, -0.17294475301416137, 0.079488395317254282]], [[0.384049596550675, 2.4821866466279996, -0.77328270842890334, 1.7932053353219757, -0.54397780963048625, 0.40083804231158793, 0.019022362628127707, -0.30994215417842957, 0.31886278975941923], [-0.28733136037694695, 2.088321717714992, 0.25005452001987122, 0.037061474776884692, 0.16562062613981732, 0.018132098623634789, 0.28638162534174572, -0.17354857459636244, 0.13061854102206999], [-0.067165497119438727, 1.5442018693257211, -0.047146569193061878, -0.24337573427798334, 0.33856162089349817, -0.2161291113386368, -0.3501777830725743, 0.21851301023341038, -0.31878872341802272], [-0.0083927095069078576, 0.95474652711401542, -0.018183731346643351, 0.0016954125855086781, -0.0034373057082911114, -0.020376231381836182, -0.015608044038367392, -0.0031305762860928078, 0.0056664527526915521]], [[0.31715316863758297, -0.12945236033140331, 1.9621250034901851, 0.35105713558140023, 0.72626341692394636, -0.60711863040295677, 0.24891012190604567, -0.29469891767867684, 0.045680288929663998], [-0.047240699250265292, -0.14746677900367569, 1.5171225740406353, -0.19127537363091773, -0.037171675121866095, 0.40399785899475471, -0.21441961112816421, 0.10353674235561594, -0.088361124913115846], [-0.1775399730465983, -0.005090466393783106, 1.0249384224478593, -0.048488379659895317, 0.22527350329175971, 0.25741312223702334, 0.046315520237044557, -0.25688594668846243, 0.33058826065922986], [0.0027424156278615369, -0.012841010112792576, 0.9423258119641823, -0.021936235102827457, 0.0046404705998353878, -0.00014099208402958634, 0.0017914856634123674, -0.00077335177689234606, -0.025899014387752953]], [[0.097069238923578133, -0.09180878465973781, -0.34873119987776813, 1.7000996416207512, -0.17613864704547499, -0.21692876346053772, -0.067756449582047254, 0.08074333569749724, -0.2919550111057006], [0.046140854924015144, 0.037566603749388708, -0.20410682100372313, 1.1089930670502877, -0.13433491039036199, 0.0090536696668144078, 0.1693190064775679, -0.33311835077592528, 0.15543578013108356], [0.0002484205994016009, 0.0047326921612739848, -0.016228677190216562, 0.93009605671210016, -0.026676241644966597, 0.0067693223148977992, -0.00025127653686581161, 0.0040400712488954018, 0.0059225945308394538], [0.00024842059941580536, 0.0047326921615433075, -0.016228677190824117, 0.93009605671776097, -0.026676241645173283, 0.0067693223143789321, -0.00025127653686717922, 0.0040400712487113641, 0.0059225945303643512]], [[0.04441333592269199, -0.02146498258212131, -0.00027912732115499691, 0.072904238362114474, 1.1071208271743849, -0.025476554971918419, 0.11866252558706129, -0.15423980322438302, -0.18552818628444764], [0.031311212312248878, 0.011017573066768935, -0.044825348262292848, -0.012069780351789273, 0.97524863525122363, -0.055597264297433904, -0.12506473912978519, -0.067082637820953847, -0.013001342923585082], [0.00085151490800758356, 0.0012416445906273392, 0.0059894547015389779, -0.021756941769819117, 0.91803049058186681, -0.029545631552415824, 0.0092091439648118306, 0.00079230164567713765, 0.0062649514075803587], [0.00085151490810546847, 0.0012416445904903102, 0.0059894547022102543, -0.021756941768798055, 0.91803049058591035, -0.029545631550934526, 0.0092091439648621567, 0.000792301645615348, 0.0062649514070540827]], [[0.0077035763582541661, 0.027719832872172806, 0.066888863144775865, -0.083664621651455204, -0.010529029928218839, 0.99029133216804266, 0.022022783850756261, 0.1802879568539949, -0.075221174036468552], [0.0012164547240855817, 0.0025700818998325502, 0.00099282295867509762, 0.0067258747673168895, -0.025648436410721391, 0.90594806671500439, -0.034795444206009565, 0.0096943921949712904, -0.000166614810201114], [0.0012164547239265423, 0.0025700819001132844, 0.0009928229586220875, 0.0067258747675978288, -0.025648436409165556, 0.9059480667127463, -0.034795444204607909, 0.0096943921951276515, -0.00016661481022485538], [0.0012164547240280841, 0.0025700819001617478, 0.00099282295868703815, 0.0067258747677601486, -0.025648436408936472, 0.90594806672516781, -0.034795444210286887, 0.0096943921944193118, -0.00016661481021581343]]], prehc: 10000, lambdahc: 1, rcut: 7, dcut: 0.01, rcut_in: 1.0002, dcut_in: 0.10000000000000001, inner_cutoff_type: distance}
  [0, 2]: {nradmax: 6, lmax: 3, nradbasemax: 9, radbasename: SBessel, radparameters: [5.25], radcoefficients: [[[3.7970185963190994, -1.8199382737892966, 1.9900338013552872, -0.3614441327703245, 0.58446748525355408, -0.0082973418273040132, -0.0017274379578954193, -0.12025085882647775, 0.16808979982358005], [3.1201672277687589, -0.47324627363749339, -0.2526653542003518, 0.64455779265805746, -0.25910147859901733, 0.10613636185013471, 0.10528604762787126, -0.12544042401371214, -0.19982116419437407], [1.9982049579261751, -0.16507635527465495, -0.06220421755138815, 0.76614365734251655, -0.018789448109690386, -0.056243060913902181, 0.15550490776746514, -0.46649358965880228, 0.42369430492588273], [1.1458038683981717, -0.21722015385083376, 0.18154033728695204, 0.37309984717836109, -0.33118785373977389, -0.013401774495894922, 0.14531614165030116, -0.21043611005544405, 0.10494019732777189]], [[0.69006778454487916, 2.4160901991786288, -0.4772813064713024, 1.580721350474386, -0.49300631826265445, 0.45097164256770983, 0.15766087472029042, -0.32183308657587201, 0.35975554008682958], [-0.087028234407135349, 2.1254814887520403, 0.23577986731341047, -0.1238050720534003, 0.26937996525504088, 0.17953073155913102, 0.11760361991876243, 0.079845703986855587, -0.077781081726937651], [0.023026581876154088, 1.6093498197371385, -0.013708989729882689, -0.29341593769057323, 0.32537115945870543, -0.25070372506576977, -0.4594196397507696, 0.19161191053631443, -0.18821616677459935], [-0.0083927095074419911, 0.95474652711665853, -0.018183731345724218, 0.0016954125856750862, -0.0034373057082234147, -0.020376231381163342, -0.015608044037902669, -0.0031305762861345695, 0.00566645275258506]], [[0.51681005015881953, -0.23111605168733479, 1.8104143655927183, 0.60879803191905912, 0.30738250036858766, -0.56225263340517173, 1.0533179185651473, -0.41624628323618884, -0.13187041152981557], [-0.11183293962678581, -0.1417263558519509, 1.4943330133723138, -0.30081682264469067, -0.13449420479213767, 0.28881826835506547, -0.23656188266237865, 0.1652151425751695, -0.3669604365142719], [-0.056866042241870474, 0.056626671175855951, 1.0142736271487029, -0.091725588901660854, 0.20070445639369316, 0.3590850033506956, 0.20520499650179158, -0.18581462239432386, -0.081162410783518824], [0.0027424156278817564, -0.012841010113684581, 0.94232581196497056, -0.021936235101721581, 0.0046404706000252333, -0.00014099208403647732, 0.001791485663461181, -0.0007733517768996371, -0.025899014389822856]], [[0.12084760709111621, -0.16201388751844756, -0.4354839768773997, 1.6094194675465565, -0.27592055172694363, -0.17129957360944609, 0.19900579111953007, 0.0080745315772373025, -0.38963770054496344], [0.016119315514338855, 0.06736563961272575, -0.16549974944704118, 1.1203305903901626, -0.24846971737917592, -0.18479893371126169, 0.29859028028909451, -0.25804435872116849, -0.11597768646392853], [0.00024842059942338334, 0.0047326921619018619, -0.016228677190406389, 0.93009605671042228, -0.026676241646370894, 0.006769322314437224, -0.00025127653684622534, 0.0040400712486935797, 0.005922594530343943], [0.00024842059943320935, 0.0047326921616316527, -0.016228677191486768, 0.93009605670794604, -0.026676241642723246, 0.0067693223147453014, -0.00025127653686694319, 0.0040400712484814612, 0.0059225945304985494]], [[-0.012109748184266139, 0.0061716739231149715, 0.11065116477689706, 0.069710916366124323, 1.1261321310222514, -0.058102835928344219, -0.11934482359156623, -0.23747672158741545, -0.015780636678443972], [0.01221062682559031, 0.006185505387872132, -0.023709032863265502, -0.021989159085139071, 0.95543925341795699, -0.044460829369274216, -0.019043248454894326, 0.012447592421818114, -0.021987885523598923], [0.00085151490814185159, 0.0012416445906989384, 0.0059894547013434893, -0.021756941768621297, 0.91803049058653297, -0.029545631551945742, 0.0092091439644700467, 0.00079230164594783898, 0.0062649514077442537], [0.0008515149081461138, 0.0012416445906666643, 0.0059894547018027105, -0.021756941771505122, 0.91803049058744224, -0.029545631552773077, 0.0092091439651845845, 0.00079230164575195302, 0.00626495140786619]], [[-0.025249739225245236, -0.093402634529035813, 0.034491151056455893, -0.052348237575352154, 0.052437617427450761, 1.0675935090466169, -0.048556803302782996, -0.043603933563403564, 0.3208535568693161], [0.0012164547240970515, 0.0025700819000786944, 0.0009928229586524341, 0.0067258747672337251, -0.025648436408872589, 0.90594806672665373, -0.034795444207678425, 0.0096943921952973005, -0.00016661481015253863], [0.0012164547240699174, 0.0025700819000416698, 0.00099282295872601804, 0.0067258747669988192, -0.025648436408279011, 0.90594806671959804, -0.034795444206043857, 0.0096943921945822683, -0.00016661481020867561], [0.0012164547240377636, 0.0025700819002451316, 0.00099282295880726338, 0.0067258747676147371, -0.025648436411307825, 0.90594806672159955, -0.034795444208286071, 0.0096943921942109421, -0.00016661481018020942]]], prehc: 10000, lambdahc: 1, rcut: 7, dcut: 0.01, rcut_in: 1.0002, dcut_in: 0.10000000000000001, inner_cutoff_type: distance}
  [0, 3]: {nradmax: 6, lmax: 3, nradbasemax: 9, radbasename: SBessel, radparameters: [5.25], radcoefficients: [[[3.672624958360343, -3.1812697618404031, 1.9731651068976062, -0.51969041903110713, -0.36973585889803329, 0.8591374008406093, -0.74981778271025501, 0.48883853094784457, -0.062528457853879657], [2.7627599964740099, -0.96197408439244625, -0.066406539512551682, 0.18146499587476583, -1.0170728642715923, 1.3938167787238755, -1.1947194200506108, 0.41833556434842462, -0.20750523658298045], [1.7290559276718545, -1.2755972841849998, 1.4185315254130413, -0.43421697063063847, -0.084627260438956423, 0.65450846449961153, -0.62240514787784307, 0.54930049105276135, -0.47594899134306135], [0.97158274400351818, -0.2838979120429137, -0.12348459325307606, 0.78899476514896971, -0.6728254355395662, 0.51014789839755603, -0.22485323471738705, 0.12300595097975112, 0.026854448816192641]], [[1.6335278519971799, 1.9909891509717339, 0.01729057847651241, 1.5400287836198454, -0.17573623119331694, 0.805703362730946, -0.22582831808272877, 0.11606718161526614, 0.35460850770697167], [0.62029798847388407, 1.5651277130346462, -0.92924067918535203, -0.37271161127664082, 0.077575758106488549, -0.5663954711147543, 0.46633126534416225, -1.4393161838156752, 0.63236853731957887], [-1.0509326717627432, 0.96764688835032964, 0.20343904189480641, -1.0097135382504607, 1.1642624816335845, -0.98752654912850124, 0.72203497820487794, -0.21004035441296021, -0.19916571431830962], [-0.0083927095081327476, 0.95474652711764596, -0.018183731344312462, 0.0016954125854262499, -0.0034373057082941892, -0.020376231381330299, -0.015608044037221894, -0.0031305762862427499, 0.0056664527528189077]], [[1.1719231016669818, 0.54881149416253705, 1.5200522337909579, -0.87670325600432553, 1.7383361444481999, -1.0846341843260829, 0.78883861985159953, -0.49883459522986834, 0.24120041579305998], [0.022309715968959927, -0.75651243670373913, 1.1914999749441093, 1.1207178391901345, -0.59180833524415155, -0.34066738600077268, 0.53738299324571237, -0.30500247354645654, 0.43097062332667507], [-0.35763174455727753, -0.71360581975825144, 0.51809895761000357, -0.8823043214623516, 1.1288040895368963, -0.17274080252834773, -0.22852552234080895, 0.043623089683446734, 0.51988707135823786], [0.002742415627584773, -0.012841010113154952, 0.94232581196055132, -0.021936235102477625, 0.0046404705998689504, -0.00014099208403353032, 0.0017914856632877173, -0.00077335177692995226, -0.02589901438814244]], [[-0.16625270431038913, -0.54955805288155024, -0.10033739720274487, 1.3030694509897649, 0.19286793941371499, 1.2700626635750392, -0.42978647028983025, -0.17319358915160268, 0.37059521050377331], [0.22531452579270786, -0.13764347825383721, -0.28683638256136074, 1.0181148509170879, -0.077437302494562016, -0.03305994805485124, 1.0483354269781038, 0.45696562313436284, -0.30490155467870805], [0.00024842059942786429, 0.0047326921614663595, -0.016228677191371815, 0.93009605670690432, -0.026676241645490706, 0.0067693223144711812, -0.00025127653684249758, 0.0040400712490967355, 0.0059225945302506773], [0.00024842059940130811, 0.0047326921619063505, -0.016228677189768444, 0.93009605671315465, -0.02667624164698558, 0.0067693223144999195, -0.00025127653687248786, 0.0040400712488144518, 0.0059225945305433599]], [[-0.23125603617615201, -0.10694140076031812, -0.18928139495026117, -0.28448786076400773, 1.3338326073824931, -0.16551263514440465, 0.34971773356363028, 0.25095577342511621, 0.53804232953242692], [0.088634425798897645, -0.023451169091718092, -0.25287821971102414, -0.30524620971874922, 1.271446239281171, -0.40385959679079136, -0.1802502738275745, 0.31556729461675215, -0.27703607150102766], [0.00085151490793544161, 0.0012416445907294533, 0.0059894547021396623, -0.021756941768445531, 0.91803049059153086, -0.02954563155189464, 0.0092091439642631688, 0.00079230164537365212, 0.0062649514074555731], [0.00085151490811905331, 0.0012416445906764878, 0.0059894547018186691, -0.021756941770079807, 0.91803049058295205, -0.029545631552703247, 0.0092091439648835389, 0.00079230164580891148, 0.0062649514073133692]], [[0.71322467042711213, 0.060755916664375721, -0.33392687466578669, 0.28987612478664504, 0.17166614391610344, 0.92159822051675433, -0.60154253471510133, -0.52121250612546255, -0.17092753317323375], [0.0012164547240935712, 0.00257008190003235, 0.00099282295872991813, 0.0067258747670823271, -0.025648436406333592, 0.90594806670879291, -0.034795444205215645, 0.0096943921952668544, -0.00016661481018968925], [0.0012164547239457602, 0.0025700819000670284, 0.00099282295857908999, 0.0067258747669019575, -0.025648436410734332, 0.90594806672097061, -0.034795444204907849, 0.0096943921943323987, -0.00016661481020884729], [0.0012164547240488179, 0.0025700819001193398, 0.00099282295869030182, 0.006725874767405827, -0.025648436409607709, 0.90594806671116634, -0.034795444206504995, 0.0096943921939154007, -0.0001666148102004476]]], prehc: 10000, lambdahc: 1, rcut: 7, dcut: 0.01, rcut_in: 1.0002, dcut_in: 0.10000000000000001, inner_cutoff_type: distance}
  [1, 0]: {nradmax: 6, lmax: 3, nradbasemax: 9, radbasename: SBessel, radparameters: [5.25], radcoefficients: [[[3.8521264221123377, -1.7777037041363462, 1.9805203458448075, 0.10571306540424232, 0.51305385299333295, -0.068384848352240082, 0.045339639596622183, -0.16896140724729133, 0.14662709231586635], [2.928132228302593, -0.34718579565592556, -0.26863209175873631, 0.52640937897814721, -0.49912907022807396, -0.12686161506199137, 0.15517981368358871, -0.10036253060844473, -0.020346180186353952], [2.1502350282134524, -0.099642699037468793, 0.14477332691886857, 0.66927334499489843, -0.29094817499502756, -0.097857186926409948, -0.053938696840052973, -0.31776881455133127, 0.21706793466217508], [1.1944215395512496, -0.31407116059788931, 0.14091649789057109, 0.5837232172411877, -0.34338416092314356, -0.039467431950062026, 0.39709966631282467, -0.17294475301416137, 0.079488395317254282]], [[0.384049596550675, 2.4821866466279996, -0.77328270842890334, 1.7932053353219757, -0.54397780963048625, 0.40083804231158793, 0.019022362628127707, -0.30994215417842957, 0.31886278975941923], [-0.28733136037694695, 2.088321717714992, 0.25005452001987122, 0.037061474776884692, 0.16562062613981732, 0.018132098623634789, 0.28638162534174572, -0.17354857459636244, 0.13061854102206999], [-0.067165497119438727, 1.5442018693257211, -0.047146569193061878, -0.24337573427798334, 0.33856162089349817, -0.2161291113386368, -0.3501777830725743, 0.21851301023341038, -0.31878872341802272], [-0.0083927095069078576, 0.95474652711401542, -0.018183731346643351, 0.0016954125855086781, -0.0034373057082911114, -0.020376231381836182, -0.015608044038367392, -0.0031305762860928078, 0.0056664527526915521]], [[0.31715316863758297, -0.12945236033140331, 1.9621250034901851, 0.35105713558140023, 0.72626341692394636, -0.60711863040295677, 0.24891012190604567, -0.29469891767867684, 0.045680288929663998], [-0.047240699250265292, -0.14746677900367569, 1.5171225740406353, -0.19127537363091773, -0.037171675121866095, 0.40399785899475471, -0.21441961112816421, 0.10353674235561594, -0.088361124913115846], [-0.1775399730465983, -0.005090466393783106, 1.0249384224478593, -0.048488379659895317, 0.22527350329175971, 0.25741312223702334, 0.046315520237044557, -0.25688594668846243, 0.33058826065922986], [0.0027424156278615369, -0.012841010112792576, 0.9423258119641823, -0.021936235102827457, 0.0046404705998353878, -0.00014099208402958634, 0.0017914856634123674, -0.00077335177689234606, -0.025899014387752953]], [[0.097069238923578133, -0.09180878465973781, -0.34873119987776813, 1.7000996416207512, -0.17613864704547499, -0.21692876346053772, -0.067756449582047254, 0.08074333569749724, -0.2919550111057006], [0.046140854924015144, 0.037566603749388708, -0.20410682100372313, 1.1089930670502877, -0.13433491039036199, 0.0090536696668144078, 0.1693190064775679, -0.33311835077592528, 0.15543578013108356], [0.0002484205994016009, 0.0047326921612739848, -0.016228677190216562, 0.93009605671210016, -0.026676241644966597, 0.0067693223148977992, -0.00025127653686581161, 0.0040400712488954018, 0.0059225945308394538], [0.00024842059941580536, 0.0047326921615433075, -0.016228677190824117, 0.93009605671776097, -0.026676241645173283, 0.0067693223143789321, -0.00025127653686717922, 0.0040400712487113641, 0.0059225945303643512]], [[0.04441333592269199, -0.02146498258212131, -0.00027912732115499691, 0.072904238362114474, 1.1071208271743849, -0.025476554971918419, 0.11866252558706129, -0.15423980322438302, -0.18552818628444764], [0.031311212312248878, 0.011017573066768935, -0.044825348262292848, -0.012069780351789273, 0.97524863525122363, -0.055597264297433904, -0.12506473912978519, -0.067082637820953847, -0.013001342923585082], [0.00085151490800758356, 0.0012416445906273392, 0.0059894547015389779, -0.021756941769819117, 0.91803049058186681, -0.029545631552415824, 0.0092091439648118306, 0.00079230164567713765, 0.0062649514075803587], [0.00085151490810546847, 0.0012416445904903102, 0.0059894547022102543, -0.021756941768798055, 0.91803049058591035, -0.029545631550934526, 0.0092091439648621567, 0.000792301645615348, 0.0062649514070540827]], [[0.0077035763582541661, 0.027719832872172806, 0.066888863144775865, -0.083664621651455204, -0.010529029928218839, 0.99029133216804266, 0.022022783850756261, 0.1802879568539949, -0.075221174036468552], [0.0012164547240855817, 0.0025700818998325502, 0.00099282295867509762, 0.0067258747673168895, -0.025648436410721391, 0.90594806671500439, -0.034795444206009565, 0.0096943921949712904, -0.000166614810201114], [0.0012164547239265423, 0.0025700819001132844, 0.0009928229586220875, 0.0067258747675978288, -0.025648436409165556, 0.9059480667127463, -0.034795444204607909, 0.0096943921951276515, -0.00016661481022485538], [0.0012164547240280841, 0.0025700819001617478, 0.00099282295868703815, 0.0067258747677601486, -0.025648436408936472, 0.90594806672516781, -0.034795444210286887, 0.0096943921944193118, -0.00016661481021581343]]], prehc: 10000, lambdahc: 1, rcut: 7, dcut: 0.01, rcut_in: 1.0002, dcut_in: 0.10000000000000001, inner_cutoff_type: distance}
  [1, 1]: {nradmax: 6, lmax: 3, nradbasemax: 11, radbasename: SBessel, radparameters: [5.25], radcoefficients: [[[3.7095689112026404, -1.9929957665002342, 0.89109323262499485, -0.63042200093916745, 0.5713731725270752, -0.21524464441036079, -0.091936288075266062, 0.2275838700642441, -0.18389006585656253, 0.069857771031705124, 0.0042998508394542483], [3.7100282166740244, -1.9481169951339141, 0.90815117277342927, 0.11925711116737764, 0.14008387588156029, -0.12830600597944905, -0.14385487317267409, 0.58589581813950731, -0.61515179413219445, 0.36841843964846654, -0.16652347082845848], [2.8508507541952879, -0.94925973556101195, -0.63476987686696873, 0.67469195523969261, -0.50502482772638801, 0.60517817812916619, -0.59278779282153726, 0.26190714069646637, -0.0042759060563548465, -0.050250093313704419, -0.011442983442617707], [1.9878339567000383, -1.0077446969475219, 0.0097791806713086911, 0.69606613539860795, -0.8308931287662582, 0.48293649242511971, -0.076893184459861624, -0.18308327959357715, 0.29782798979637509, -0.18150169278528272, 0.047401583637749267]], [[0.2475747259203675, 2.2827194033384641, -2.1094679560521845, -0.25073758860231898, 1.1189407543783818, -0.188455733587508, -0.54157694683298652, 0.5761488871630247, -0.32566404003631433, 0.086235899151798939, -0.014482516284143637], [0.49512560862734128, 1.0877913259566871, -0.97976631364478983, -0.84920042497956361, 0.69083466427930817, 0.51885414597291479, -0.48915457826075853, -0.20088691552691496, 0.79732409347373068, -0.7602854735794512, 0.52161181220687536], [-0.38302127839278344, 1.3334534781207878, -1.1778968347877803, -0.39699868765990876, 0.9610734804884391, -0.74653743421815577, 0.32649073945707974, -0.35526013083207375, 0.35647477751131973, -0.21374976150184039, 0.0052446403099173141], [-0.53025566446195471, 1.2532753572058342, -0.69257789411325965, -0.34990176942720697, 0.6871701989404293, -0.64856685690032756, 0.57963256892153359, -0.32372176315621137, 0.037296810794355081, 0.021005033401807375, 0.016834635877938688]], [[1.2428098753352126, -0.3337673765858869, 1.0255624389323605, -0.70703869060671454, -0.16558217732366071, 0.66088616260220934, 0.08532751965521948, -1.3321812663234276, 0.93715600975590707, -0.65722536844478319, 0.19726184009764375], [-0.21738263810743402, -1.2098693963433087, 0.70246090077736068, -0.66596812149109974, -0.229857026897616, 0.098456359825070283, 0.56960228325406415, -1.2992995397919604, 1.1618086751818222, -0.58521202645152937, 0.1984414110589231], [-0.17927152740321073, -0.41904819635545087, 0.71243592483175633, 0.21406679018394992, -0.63346835215037312, -0.18822469687524485, 1.0371796631179442, -0.92218312396609403, 0.52296730499931754, -0.22617264822688998, 0.022410723815505067], [-0.79473311180135964, -0.79263130954718197, 0.31186422605374431, 0.16016569585394164, -0.15289835293634541, -0.83100258600763022, 0.43110185915832777, -0.38998396456143725, 0.27179671183246074, 0.037954537159288523, -0.26056152504269192]], [[0.61649070784777871, 0.41742390927334772, 0.42867744418662779, 1.6097340922075423, -1.1923855518648407, 0.43447106021075299, -0.083569524410127244, 0.41116484746051385, -0.3223255834970164, -0.40049090282989536, 0.56514065316578477], [1.0207855843377667, 0.51034064788372313, -0.9788096880395738, 1.1233677466489524, -0.69127389685123874, 0.41965028858371622, 0.59467206043359067, -0.6499370868200478, 0.44406868004688971, -0.13027595653112981, -0.045524924099589047], [0.090592481414726561, 0.17608471322624719, -0.0051052534052963986, 0.18418779147172953, -0.74497817000453814, 0.23579212830278695, 0.33336145606757661, 0.43497806610494999, -0.096740359461827088, -0.13093206595848328, -0.85228514893884899], [0.00023343377182881517, 0.004445014487159938, -0.015242180062315142, 0.93434579281484242, -0.025054383522657417, 0.0063577389981631857, -0.00023608009246878914, 0.0037945483055796749, 0.0055625712592614427, 0.0022737414053311733, -0.0043589015298370476]], [[-0.33846331679129393, 0.3228894051220117, -0.3889312526326727, -0.12844450699528728, 1.0633559553226806, -1.6236661219521245, 1.1813692663501909, -0.25703148614614763, -0.13700790563804624, 0.25465400268798954, -0.092499336598049986], [0.68927789628935465, 0.47767097675350167, -0.33466946258917341, -0.60250769223101375, 1.0890896521123863, -0.95158503878258482, -0.19018080885525768, 0.14730126263554624, 0.37418840963205702, -0.19331540202655118, -0.39016890814279392], [0.14350368509206901, 0.37928066833143637, 0.41401845016239913, -0.24440921572430552, 0.69631090525834272, -0.14357426749430385, -0.48257475160584029, 0.27803010176086407, -0.13673862706384338, -0.16036181019768231, 0.44662240819725052], [0.0007239079989685809, 0.0010556001390377163, 0.0056030150706820152, -0.020372097003406107, 0.92300784269305858, -0.027820156223823965, 0.0088171506847303741, 0.0013552464180786987, 0.0065785530830560612, 0.0052587334645767154, 0.0034503083768875164]], [[0.18604876677588816, -0.39894326509995071, -0.86173129337484355, 0.26477510659688724, -0.68154030152079292, 0.88369822056417724, -0.51213020358201589, -0.59781777630163901, 0.25179287043622672, 0.19542614443670725, -0.36148837832247671], [-0.033853549616271211, -0.34772366343874239, -0.52589965460263877, -0.046125935791751088, -0.521824010818557, 0.4915273327549754, -1.0538285920116919, -0.024477025369912305, 0.76937104128422573, -0.57679045224810299, 0.055414528444368311], [0.0010736142320814618, 0.0024480265433058238, 0.0011113313825996739, 0.0062936089869715158, -0.024366748198606097, 0.91167154337800227, -0.032306774058602064, 0.0091231580498488032, -0.00062359912551945287, -8.6261659679506326e-05, -0.0016090765988598537], [0.0010736142322127183, 0.0024480265435939423, 0.0011113313825378897, 0.0062936089872342085, -0.024366748197316164, 0.9116715433760737, -0.032306774062373554, 0.009123158048736292, -0.00062359912558546614, -8.62616596788617e-05, -0.0016090765991832699]]], prehc: 10000, lambdahc: 1, rcut: 7, dcut: 0.01, rcut_in: 1.0002, dcut_in: 0.10000000000000001, inner_cutoff_type: distance}
  [1, 2]: {nradmax: 6, lmax: 3, nradbasemax: 9, radbasename: SBessel, radparameters: [5.25], radcoefficients: [[[3.1738427986509712, 0.53179346413063078, -0.091508614628501198, -1.6248086326391356, 1.4282093365373465, -0.76143598077528118, 0.58970420157244263, -0.43729577506544426, -0.071634797451125942], [3.7939611718667425, -2.0297482427418179, 0.7405914678200396, -0.19259252454289802, 0.03346711934728834, -0.098153429667177966, 0.038704101559400544, 0.05315759410547926, -0.039959404338669006], [2.4918836015537904, -1.2479742799151368, -0.2754286254833016, 0.9100357028911874, -0.3177893290204088, 0.17517420034053696, -0.36181264044385159, 0.41931100887213735, -0.30187202297758925], [1.2625568548184793, -0.39322983206394413, -0.17921979506069818, 0.64341903873509509, -0.63699386101064503, 0.57198530766393341, -0.35833084134544885, 0.17821564541785564, 0.011735917821245754]], [[-2.7718885831114508, 3.5336124278498899, -2.6154640309258284, 1.0170842627507481, -0.4946183950383593, 0.41176382908862552, -0.059575539894364843, -0.13029374136780883, -0.039876189674211422], [-0.023266350106420978, 2.001616791915934, -1.3458433689121121, -0.16581414538721498, 0.54434408069136642, -0.7312546171184382, 0.45270558159580276, -0.38087314152348117, -0.1685977028944631], [0.0042794564187282882, 1.4964175637611226, -0.98723626945502108, -0.23926383513410504, 0.70386997235539484, -0.5065913377132536, 0.12443681924586632, 0.13780054732588978, -0.17628828529032189], [-0.016110608093635015, 0.91502754602923742, -0.033250431637774407, 0.0035717339647106292, -0.0077005723030065436, -0.039229842164594526, -0.027918039380710191, -0.0042122069151097471, 0.009387286172513087]], [[2.8543636033650004, -0.015350129439857757, -0.49035905990447581, 0.59510243180078448, -0.88917236290799895, 0.63854656626865047, -0.28410285967819915, 0.10085892382256495, -0.085999841944960645], [0.18853314154677747, 0.1371543165182332, 0.54334216488857567, 0.33522635785664612, -0.7611709160176956, 0.20415395347272053, 0.93149389982857933, -0.78013385612639585, 0.74322627935739849], [0.20151422030874011, -0.4087045409044599, -0.0030480788476150429, -1.0415661104759661, -0.14623304238502507, 0.52575067498830585, 0.37263740951150448, 0.27256696420806331, -0.35878241575443426], [0.0053395009033846115, -0.02351765637326371, 0.89173428852837744, -0.042426652902039626, 0.0078643840884176554, -0.00032218551700066234, 0.0032846040139178647, 0.00047642553763088967, -0.046277964484020308]], [[0.41746833619771556, -0.66185430594671069, -0.93469624851190736, 2.0044175790025074, -0.77352363487519837, 0.0028418120046323925, 0.38915078486708748, -0.31218720278824974, 0.21127549774728369], [0.53369525671366325, 0.40847399211756491, -0.96622532464753175, 0.96553862602718143, -0.67029167904186093, 0.044209901006048574, 0.22734433959035563, -0.21498115999949152, 0.10646088071792442], [0.00060374298053443088, 0.0093694924175370901, -0.031155363820610453, 0.86872071018913022, -0.049270849259736911, 0.011702669033406304, -0.00019496232525292065, 0.0083212598818037178, 0.0099117327246777132], [0.0006037429804700181, 0.0093694924184179306, -0.031155363824138017, 0.86872071018989794, -0.049270849260962472, 0.011702669034708511, -0.00019496232522911056, 0.0083212598823462925, 0.0099117327259832869]], [[0.59659929183683769, 0.87628009508715687, 0.15361054448538269, 0.26128418609456772, 0.80428898389198411, -0.082420861801798875, 0.66081797998383041, -0.43328250912946437, 0.010210043739629984], [-0.078493060676648907, -0.26037566192851569, -0.27806571854061235, -0.27129389592507847, 0.77167092448238239, 0.059678260975395796, -0.16923161677650136, -0.24115448840053325, 0.062589097085919129], [0.0021070425147023193, 0.0024511477682976901, 0.01159097616816333, -0.042095675750955804, 0.84607888583631718, -0.053841561000822623, 0.016189557792582548, -0.0001308191910853198, 0.0080983348466646538], [0.0021070425143188171, 0.0024511477687021023, 0.011590976165300644, -0.042095675755606417, 0.84607888581088864, -0.053841560993257938, 0.016189557789359203, -0.00013081919089238652, 0.0080983348464369366]], [[-0.29398239491791633, -0.20996596962367156, 0.93658403462437068, 0.53168799113700227, -0.86243466099899868, 0.45374867942329739, -0.31967911702845264, 0.42300467190665825, -0.028149322651982684], [0.0018307074180644307, 0.0050531254863063705, 0.0030444579859522582, 0.012479782870210487, -0.050008919828589002, 0.8233692330984872, -0.062898222004756199, 0.018329707031371035, -0.0033932823660427218], [0.0018307074182290679, 0.0050531254856494411, 0.0030444579860932886, 0.012479782870750813, -0.050008919832687251, 0.82336923308560017, -0.062898221999165241, 0.01832970703234826, -0.0033932823659139082], [0.0018307074179356802, 0.0050531254856530069, 0.0030444579862130314, 0.012479782872273668, -0.050008919830224992, 0.8233692330750626, -0.062898222002502224, 0.018329707031189038, -0.0033932823660305892]]], prehc: 10000, lambdahc: 1, rcut: 7, dcut: 0.01, rcut_in: 1.0002, dcut_in: 0.10000000000000001, inner_cutoff_type: distance}
  [1, 3]: {nradmax: 6, lmax: 3, nradbasemax: 9, radbasename: SBessel, radparameters: [5.25], radcoefficients: [[[4.3334054512203686, -4.0287166778538079, 2.9794771198688141, -1.9624564933739401, 1.2775173428590096, -0.7616710342148052, 0.41614922137788901, -0.16700274338400634, 0.044262007864018724], [3.2219426896553935, -3.0994372574061568, 2.0668236951112418, -0.86270863386441943, 0.0078769531241177151, 0.33799100751126998, -0.38172038682598891, 0.18348955487872518, -0.081609582753845195], [2.3162793373345605, -2.2662169240220056, 1.523163407760602, -0.5343451955042311, -0.24788816885126608, 0.55361200236448482, -0.43423039691960585, 0.15540795831025705, 0.012278369309645699], [0.59100020827264788, 0.37552373191906141, -0.97077502798709459, 1.0394595487748126, -0.74279606373264195, 0.36682929992246494, -0.1533353761440045, -0.030055130045888407, 0.077324903840548492]], [[1.6435355490881727, 1.2068812140622756, -3.0845768213270714, 2.9885953401344718, -1.6175751775159455, 0.42922068745295039, 0.36849860769550075, -0.357224040777678, 0.21515416531563297], [-0.90950724782964065, 2.1655493541391144, -2.7019512727570332, 2.3753752254681535, -1.3957377644033213, 0.58756534263394267, 0.0048419007707735436, -0.11602175959844674, 0.12619187505961749], [-1.2292135357554921, 0.0018088401120043627, 0.77200795667604183, -0.32146620560358197, -0.48553948845909733, 0.99358193541903383, -0.89180907428066991, 0.44903945335898443, -0.078855813513401443], [-0.0161106080942943, 0.91502754603777503, -0.033250431640503869, 0.0035717339648302406, -0.0077005723043566858, -0.039229842159523687, -0.027918039376989466, -0.004212206915050188, 0.0093872861726296483]], [[0.74365316681522997, -1.8325153453843475, 1.7966149961889299, -1.6266965886170075, 2.1770949733514025, -2.4485074269220855, 2.1523613600786322, -1.23431423720884, 0.44626210245003634], [-0.97211239388827142, -0.65583297504129767, 0.75131818368558445, -0.81702832762692967, -0.30436817656715498, 0.043921534369900969, -1.2403426156957322, 0.8806916259117874, -1.0639728721038593], [0.052582644525630898, -0.78966421788179664, 1.3145814304280576, -1.3851798281468819, 1.062087995519486, -0.72875810942285502, 0.41855942355876441, -0.17938822248218661, 0.039533277368119485], [0.0053395009038718477, -0.023517656372874701, 0.89173428853062819, -0.042426652898953747, 0.0078643840883372666, -0.00032218551694369315, 0.003284604013847977, 0.00047642553836090034, -0.046277964481040254]], [[0.29254338382264478, -0.34751631544237971, -1.0751151561480048, 1.0637938323867187, 0.19333069326484562, -0.93534019329653051, 0.30768988254377777, 0.13877709921242559, -0.49250495864727134], [0.15204241580221353, -0.34699832971657307, -0.7225865792438495, 0.32330461780103337, 0.02395883106459986, -1.2688574324278381, 0.60641311146617771, -0.2806306759404783, -0.3742276229141952], [0.00060374298053204802, 0.0093694924177361288, -0.031155363824171365, 0.86872071020087138, -0.049270849264296757, 0.0117026690340848, -0.00019496232523702193, 0.0083212598828053333, 0.0099117327265185774], [0.00060374298057405749, 0.00936949241809883, -0.031155363824077409, 0.86872071020482522, -0.049270849265480601, 0.011702669034275, -0.00019496232524069274, 0.0083212598814860483, 0.0099117327264521844]], [[0.20854699584174538, 0.79925347728968621, -0.41252914092200188, -0.52660058602946203, 1.0097618067675416, -0.73624602766351921, 0.43673124106279715, -0.076879503973994595, 0.018905436254254955], [-0.38596998058656495, -0.045462884978509949, 0.56105869624573945, 0.071110243388997213, -0.03697153001160812, 0.38762335352801425, 0.49861931000380533, -0.68433542439681938, 0.70299034278664796], [0.0021070425145214627, 0.0024511477679678966, 0.011590976166099661, -0.042095675753713861, 0.8460788858196342, -0.053841560998304394, 0.016189557791631861, -0.0001308191908775469, 0.0080983348465825042], [0.002107042514155162, 0.002451147768280656, 0.011590976165248845, -0.042095675751346165, 0.84607888583181778, -0.053841560999669247, 0.01618955779217205, -0.00013081919101429857, 0.0080983348475446217]], [[0.46961105662896163, 0.45205228601080727, 0.31184369034131937, -0.021535583856348784, -0.4070422313320966, 0.6367437416483217, -1.0291561155818325, 0.79407391683594897, -0.41264432616115548], [0.0018307074178771894, 0.005053125486002329, 0.0030444579854860499, 0.012479782870905287, -0.050008919835055246, 0.8233692330845821, -0.062898221997872303, 0.018329707031912966, -0.0033932823653030613], [0.0018307074180502559, 0.0050531254859873444, 0.0030444579861579092, 0.012479782870418977, -0.050008919824383394, 0.82336923307873522, -0.062898222005177418, 0.018329707032542188, -0.0033932823655171743], [0.0018307074180801076, 0.0050531254864103871, 0.0030444579861840931, 0.012479782871353894, -0.050008919833610881, 0.8233692330822836, -0.062898222001799647, 0.018329707033960578, -0.0033932823656356872]]], prehc: 10000, lambdahc: 1, rcut: 7, dcut: 0.01, rcut_in: 1.0002, dcut_in: 0.10000000000000001, inner_cutoff_type: distance}
  [2, 0]: {nradmax: 6, lmax: 3, nradbasemax: 9, radbasename: SBessel, radparameters: [5.25], radcoefficients: [[[3.7970185963190994, -1.8199382737892966, 1.9900338013552872, -0.3614441327703245, 0.58446748525355408, -0.0082973418273040132, -0.0017274379578954193, -0.12025085882647775, 0.16808979982358005], [3.1201672277687589, -0.47324627363749339, -0.2526653542003518, 0.64455779265805746, -0.25910147859901733, 0.10613636185013471, 0.10528604762787126, -0.12544042401371214, -0.19982116419437407], [1.9982049579261751, -0.16507635527465495, -0.06220421755138815, 0.76614365734251655, -0.018789448109690386, -0.056243060913902181, 0.15550490776746514, -0.46649358965880228, 0.42369430492588273], [1.1458038683981717, -0.21722015385083376, 0.18154033728695204, 0.37309984717836109, -0.33118785373977389, -0.013401774495894922, 0.14531614165030116, -0.21043611005544405, 0.10494019732777189]], [[0.69006778454487916, 2.4160901991786288, -0.4772813064713024, 1.580721350474386, -0.49300631826265445, 0.45097164256770983, 0.15766087472029042, -0.32183308657587201, 0.35975554008682958], [-0.087028234407135349, 2.1254814887520403, 0.23577986731341047, -0.1238050720534003, 0.26937996525504088, 0.17953073155913102, 0.11760361991876243, 0.079845703986855587, -0.077781081726937651], [0.023026581876154088, 1.6093498197371385, -0.013708989729882689, -0.29341593769057323, 0.32537115945870543, -0.25070372506576977, -0.4594196397507696, 0.19161191053631443, -0.18821616677459935], [-0.0083927095074419911, 0.95474652711665853, -0.018183731345724218, 0.0016954125856750862, -0.0034373057082234147, -0.020376231381163342, -0.015608044037902669, -0.0031305762861345695, 0.00566645275258506]], [[0.51681005015881953, -0.23111605168733479, 1.8104143655927183, 0.60879803191905912, 0.30738250036858766, -0.56225263340517173, 1.0533179185651473, -0.41624628323618884, -0.13187041152981557], [-0.11183293962678581, -0.1417263558519509, 1.4943330133723138, -0.30081682264469067, -0.13449420479213767, 0.28881826835506547, -0.23656188266237865, 0.1652151425751695, -0.3669604365142719], [-0.056866042241870474, 0.056626671175855951, 1.0142736271487029, -0.091725588901660854, 0.20070445639369316, 0.3590850033506956, 0.20520499650179158, -0.18581462239432386, -0.081162410783518824], [0.0027424156278817564, -0.012841010113684581, 0.94232581196497056, -0.021936235101721581, 0.0046404706000252333, -0.00014099208403647732, 0.001791485663461181, -0.0007733517768996371, -0.025899014389822856]], [[0.12084760709111621, -0.16201388751844756, -0.4354839768773997, 1.6094194675465565, -0.27592055172694363, -0.17129957360944609, 0.19900579111953007, 0.0080745315772373025, -0.38963770054496344], [0.016119315514338855, 0.06736563961272575, -0.16549974944704118, 1.1203305903901626, -0.24846971737917592, -0.18479893371126169, 0.29859028028909451, -0.25804435872116849, -0.11597768646392853], [0.00024842059942338334, 0.0047326921619018619, -0.016228677190406389, 0.93009605671042228, -0.026676241646370894, 0.006769322314437224, -0.00025127653684622534, 0.0040400712486935797, 0.005922594530343943], [0.00024842059943320935, 0.0047326921616316527, -0.016228677191486768, 0.93009605670794604, -0.026676241642723246, 0.0067693223147453014, -0.00025127653686694319, 0.0040400712484814612, 0.0059225945304985494]], [[-0.012109748184266139, 0.0061716739231149715, 0.11065116477689706, 0.069710916366124323, 1.1261321310222514, -0.058102835928344219, -0.11934482359156623, -0.23747672158741545, -0.015780636678443972], [0.01221062682559031, 0.006185505387872132, -0.023709032863265502, -0.021989159085139071, 0.95543925341795699, -0.044460829369274216, -0.019043248454894326, 0.012447592421818114, -0.021987885523598923], [0.00085151490814185159, 0.0012416445906989384, 0.0059894547013434893, -0.021756941768621297, 0.91803049058653297, -0.029545631551945742, 0.0092091439644700467, 0.00079230164594783898, 0.0062649514077442537], [0.0008515149081461138, 0.0012416445906666643, 0.0059894547018027105, -0.021756941771505122, 0.91803049058744224, -0.029545631552773077, 0.0092091439651845845, 0.00079230164575195302, 0.00626495140786619]], [[-0.025249739225245236, -0.093402634529035813, 0.034491151056455893, -0.052348237575352154, 0.052437617427450761, 1.0675935090466169, -0.048556803302782996, -0.043603933563403564, 0.3208535568693161], [0.0012164547240970515, 0.0025700819000786944, 0.0009928229586524341, 0.0067258747672337251, -0.025648436408872589, 0.90594806672665373, -0.034795444207678425, 0.0096943921952973005, -0.00016661481015253863], [0.0012164547240699174, 0.0025700819000416698, 0.00099282295872601804, 0.0067258747669988192, -0.025648436408279011, 0.90594806671959804, -0.034795444206043857, 0.0096943921945822683, -0.00016661481020867561], [0.0012164547240377636, 0.0025700819002451316, 0.00099282295880726338, 0.0067258747676147371, -0.025648436411307825, 0.90594806672159955, -0.034795444208286071, 0.0096943921942109421, -0.00016661481018020942]]], prehc: 10000, lambdahc: 1, rcut: 7, dcut: 0.01, rcut_in: 1.0002, dcut_in: 0.10000000000000001, inner_cutoff_type: distance}
  [2, 1]: {nradmax: 6, lmax: 3, nradbasemax: 9, radbasename: SBessel, radparameters: [5.25], radcoefficients: [[[3.1738427986509712, 0.53179346413063078, -0.091508614628501198, -1.6248086326391356, 1.4282093365373465, -0.76143598077528118, 0.58970420157244263, -0.43729577506544426, -0.071634797451125942], [3.7939611718667425, -2.0297482427418179, 0.7405914678200396, -0.19259252454289802, 0.03346711934728834, -0.098153429667177966, 0.038704101559400544, 0.05315759410547926, -0.039959404338669006], [2.4918836015537904, -1.2479742799151368, -0.2754286254833016, 0.9100357028911874, -0.3177893290204088, 0.17517420034053696, -0.36181264044385159, 0.41931100887213735, -0.30187202297758925], [1.2625568548184793, -0.39322983206394413, -0.17921979506069818, 0.64341903873509509, -0.63699386101064503, 0.57198530766393341, -0.35833084134544885, 0.17821564541785564, 0.011735917821245754]], [[-2.7718885831114508, 3.5336124278498899, -2.6154640309258284, 1.0170842627507481, -0.4946183950383593, 0.41176382908862552, -0.059575539894364843, -0.13029374136780883, -0.039876189674211422], [-0.023266350106420978, 2.001616791915934, -1.3458433689121121, -0.16581414538721498, 0.54434408069136642, -0.7312546171184382, 0.45270558159580276, -0.38087314152348117, -0.1685977028944631], [0.0042794564187282882, 1.4964175637611226, -0.98723626945502108, -0.23926383513410504, 0.70386997235539484, -0.5065913377132536, 0.12443681924586632, 0.13780054732588978, -0.17628828529032189], [-0.016110608093635015, 0.91502754602923742, -0.033250431637774407, 0.0035717339647106292, -0.0077005723030065436, -0.039229842164594526, -0.027918039380710191, -0.0042122069151097471, 0.009387286172513087]], [[2.8543636033650004, -0.015350129439857757, -0.49035905990447581, 0.59510243180078448, -0.88917236290799895, 0.63854656626865047, -0.28410285967819915, 0.10085892382256495, -0.085999841944960645], [0.18853314154677747, 0.1371543165182332, 0.54334216488857567, 0.33522635785664612, -0.7611709160176956, 0.20415395347272053, 0.93149389982857933, -0.78013385612639585, 0.74322627935739849], [0.20151422030874011, -0.4087045409044599, -0.0030480788476150429, -1.0415661104759661, -0.14623304238502507, 0.52575067498830585, 0.37263740951150448, 0.27256696420806331, -0.35878241575443426], [0.0053395009033846115, -0.02351765637326371, 0.89173428852837744, -0.042426652902039626, 0.0078643840884176554, -0.00032218551700066234, 0.0032846040139178647, 0.00047642553763088967, -0.046277964484020308]], [[0.41746833619771556, -0.66185430594671069, -0.93469624851190736, 2.0044175790025074, -0.77352363487519837, 0.0028418120046323925, 0.38915078486708748, -0.31218720278824974, 0.21127549774728369], [0.53369525671366325, 0.40847399211756491, -0.96622532464753175, 0.96553862602718143, -0.67029167904186093, 0.044209901006048574, 0.22734433959035563, -0.21498115999949152, 0.10646088071792442], [0.00060374298053443088, 0.0093694924175370901, -0.031155363820610453, 0.86872071018913022, -0.049270849259736911, 0.011702669033406304, -0.00019496232525292065, 0.0083212598818037178, 0.0099117327246777132], [0.0006037429804700181, 0.0093694924184179306, -0.031155363824138017, 0.86872071018989794, -0.049270849260962472, 0.011702669034708511, -0.00019496232522911056, 0.0083212598823462925, 0.0099117327259832869]], [[0.59659929183683769, 0.87628009508715687, 0.15361054448538269, 0.26128418609456772, 0.80428898389198411, -0.082420861801798875, 0.66081797998383041, -0.43328250912946437, 0.010210043739629984], [-0.078493060676648907, -0.26037566192851569, -0.27806571854061235, -0.27129389592507847, 0.77167092448238239, 0.059678260975395796, -0.16923161677650136, -0.24115448840053325, 0.062589097085919129], [0.0021070425147023193, 0.0024511477682976901, 0.01159097616816333, -0.042095675750955804, 0.84607888583631718, -0.053841561000822623, 0.016189557792582548, -0.0001308191910853198, 0.0080983348466646538], [0.0021070425143188171, 0.0024511477687021023, 0.011590976165300644, -0.042095675755606417, 0.84607888581088864, -0.053841560993257938, 0.016189557789359203, -0.00013081919089238652, 0.0080983348464369366]], [[-0.29398239491791633, -0.20996596962367156, 0.93658403462437068, 0.53168799113700227, -0.86243466099899868, 0.45374867942329739, -0.31967911702845264, 0.42300467190665825, -0.028149322651982684], [0.0018307074180644307, 0.0050531254863063705, 0.0030444579859522582, 0.012479782870210487, -0.050008919828589002, 0.8233692330984872, -0.062898222004756199, 0.018329707031371035, -0.0033932823660427218], [0.0018307074182290679, 0.0050531254856494411, 0.0030444579860932886, 0.012479782870750813, -0.050008919832687251, 0.82336923308560017, -0.062898221999165241, 0.01832970703234826, -0.0033932823659139082], [0.0018307074179356802, 0.0050531254856530069, 0.0030444579862130314, 0.012479782872273668, -0.050008919830224992, 0.8233692330750626, -0.062898222002502224, 0.018329707031189038, -0.0033932823660305892]]], prehc: 10000, lambdahc: 1, rcut: 7, dcut: 0.01, rcut_in: 1.0002, dcut_in: 0.10000000000000001, inner_cutoff_type: distance}
  [2, 2]: {nradmax: 6, lmax: 3, nradbasemax: 11, radbasename: SBessel, radparameters: [5.25], radcoefficients: [[[3.7095689112026404, -1.9929957665002342, 0.89109323262499485, -0.63042200093916745, 0.5713731725270752, -0.21524464441036079, -0.091936288075266062, 0.2275838700642441, -0.18389006585656253, 0.069857771031705124, 0.0042998508394542483], [3.7100282166740244, -1.9481169951339141, 0.90815117277342927, 0.11925711116737764, 0.14008387588156029, -0.12830600597944905, -0.14385487317267409, 0.58589581813950731, -0.61515179413219445, 0.36841843964846654, -0.16652347082845848], [2.8508507541952879, -0.94925973556101195, -0.63476987686696873, 0.67469195523969261, -0.50502482772638801, 0.60517817812916619, -0.59278779282153726, 0.26190714069646637, -0.0042759060563548465, -0.050250093313704419, -0.011442983442617707], [1.9878339567000383, -1.0077446969475219, 0.0097791806713086911, 0.69606613539860795, -0.8308931287662582, 0.48293649242511971, -0.076893184459861624, -0.18308327959357715, 0.29782798979637509, -0.18150169278528272, 0.047401583637749267]], [[0.2475747259203675, 2.2827194033384641, -2.1094679560521845, -0.25073758860231898, 1.1189407543783818, -0.188455733587508, -0.54157694683298652, 0.5761488871630247, -0.32566404003631433, 0.086235899151798939, -0.014482516284143637], [0.49512560862734128, 1.0877913259566871, -0.97976631364478983, -0.84920042497956361, 0.69083466427930817, 0.51885414597291479, -0.48915457826075853, -0.20088691552691496, 0.79732409347373068, -0.7602854735794512, 0.52161181220687536], [-0.38302127839278344, 1.3334534781207878, -1.1778968347877803, -0.39699868765990876, 0.9610734804884391, -0.74653743421815577, 0.32649073945707974, -0.35526013083207375, 0.35647477751131973, -0.21374976150184039, 0.0052446403099173141], [-0.53025566446195471, 1.2532753572058342, -0.69257789411325965, -0.34990176942720697, 0.6871701989404293, -0.64856685690032756, 0.57963256892153359, -0.32372176315621137, 0.037296810794355081, 0.021005033401807375, 0.016834635877938688]], [[1.2428098753352126, -0.3337673765858869, 1.0255624389323605, -0.70703869060671454, -0.16558217732366071, 0.66088616260220934, 0.08532751965521948, -1.3321812663234276, 0.93715600975590707, -0.65722536844478319, 0.19726184009764375], [-0.21738263810743402, -1.2098693963433087, 0.70246090077736068, -0.66596812149109974, -0.229857026897616, 0.098456359825070283, 0.56960228325406415, -1.2992995397919604, 1.1618086751818222, -0.58521202645152937, 0.1984414110589231], [-0.17927152740321073, -0.41904819635545087, 0.71243592483175633, 0.21406679018394992, -0.63346835215037312, -0.18822469687524485, 1.0371796631179442, -0.92218312396609403, 0.52296730499931754, -0.22617264822688998, 0.022410723815505067], [-0.79473311180135964, -0.79263130954718197, 0.31186422605374431, 0.16016569585394164, -0.15289835293634541, -0.83100258600763022, 0.43110185915832777, -0.38998396456143725, 0.27179671183246074, 0.037954537159288523, -0.26056152504269192]], [[0.61649070784777871, 0.41742390927334772, 0.42867744418662779, 1.6097340922075423, -1.1923855518648407, 0.43447106021075299, -0.083569524410127244, 0.41116484746051385, -0.3223255834970164, -0.40049090282989536, 0.56514065316578477], [1.0207855843377667, 0.51034064788372313, -0.9788096880395738, 1.1233677466489524, -0.69127389685123874, 0.41965028858371622, 0.59467206043359067, -0.6499370868200478, 0.44406868004688971, -0.13027595653112981, -0.045524924099589047], [0.090592481414726561, 0.17608471322624719, -0.0051052534052963986, 0.18418779147172953, -0.74497817000453814, 0.23579212830278695, 0.33336145606757661, 0.43497806610494999, -0.096740359461827088, -0.13093206595848328, -0.85228514893884899], [0.00023343377182881517, 0.004445014487159938, -0.015242180062315142, 0.93434579281484242, -0.025054383522657417, 0.0063577389981631857, -0.00023608009246878914, 0.0037945483055796749, 0.0055625712592614427, 0.0022737414053311733, -0.0043589015298370476]], [[-0.33846331679129393, 0.3228894051220117, -0.3889312526326727, -0.12844450699528728, 1.0633559553226806, -1.6236661219521245, 1.1813692663501909, -0.25703148614614763, -0.13700790563804624, 0.25465400268798954, -0.092499336598049986], [0.68927789628935465, 0.47767097675350167, -0.33466946258917341, -0.60250769223101375, 1.0890896521123863, -0.95158503878258482, -0.19018080885525768, 0.14730126263554624, 0.37418840963205702, -0.19331540202655118, -0.39016890814279392], [0.14350368509206901, 0.37928066833143637, 0.41401845016239913, -0.24440921572430552, 0.69631090525834272, -0.14357426749430385, -0.48257475160584029, 0.27803010176086407, -0.13673862706384338, -0.16036181019768231, 0.44662240819725052], [0.0007239079989685809, 0.0010556001390377163, 0.0056030150706820152, -0.020372097003406107, 0.92300784269305858, -0.027820156223823965, 0.0088171506847303741, 0.0013552464180786987, 0.0065785530830560612, 0.0052587334645767154, 0.0034503083768875164]], [[0.18604876677588816, -0.39894326509995071, -0.86173129337484355, 0.26477510659688724, -0.68154030152079292, 0.88369822056417724, -0.51213020358201589, -0.59781777630163901, 0.25179287043622672, 0.19542614443670725, -0.36148837832247671], [-0.033853549616271211, -0.34772366343874239, -0.52589965460263877, -0.046125935791751088, -0.521824010818557, 0.4915273327549754, -1.0538285920116919, -0.024477025369912305, 0.76937104128422573, -0.57679045224810299, 0.055414528444368311], [0.0010736142320814618, 0.0024480265433058238, 0.0011113313825996739, 0.0062936089869715158, -0.024366748198606097, 0.91167154337800227, -0.032306774058602064, 0.0091231580498488032, -0.00062359912551945287, -8.6261659679506326e-05, -0.0016090765988598537], [0.0010736142322127183, 0.0024480265435939423, 0.0011113313825378897, 0.0062936089872342085, -0.024366748197316164, 0.9116715433760737, -0.032306774062373554, 0.009123158048736292, -0.00062359912558546614, -8.62616596788617e-05, -0.0016090765991832699]]], prehc: 10000, lambdahc: 1, rcut: 7, dcut: 0.01, rcut_in: 1.0002, dcut_in: 0.10000000000000001, inner_cutoff_type: distance}
  [2, 3]: {nradmax: 6, lmax: 3, nradbasemax: 9, radbasename: SBessel, radparameters: [5.25], radcoefficients: [[[4.3334054512203686, -4.0287166778538079, 2.9794771198688141, -1.9624564933739401, 1.2775173428590096, -0.7616710342148052, 0.41614922137788901, -0.16700274338400634, 0.044262007864018724], [3.2219426896553935, -3.0994372574061568, 2.0668236951112418, -0.86270863386441943, 0.0078769531241177151, 0.33799100751126998, -0.38172038682598891, 0.18348955487872518, -0.081609582753845195], [2.3162793373345605, -2.2662169240220056, 1.523163407760602, -0.5343451955042311, -0.24788816885126608, 0.55361200236448482, -0.43423039691960585, 0.15540795831025705, 0.012278369309645699], [0.59100020827264788, 0.37552373191906141, -0.97077502798709459, 1.0394595487748126, -0.74279606373264195, 0.36682929992246494, -0.1533353761440045, -0.030055130045888407, 0.077324903840548492]], [[1.6435355490881727, 1.2068812140622756, -3.0845768213270714, 2.9885953401344718, -1.6175751775159455, 0.42922068745295039, 0.36849860769550075, -0.357224040777678, 0.21515416531563297], [-0.90950724782964065, 2.1655493541391144, -2.7019512727570332, 2.3753752254681535, -1.3957377644033213, 0.58756534263394267, 0.0048419007707735436, -0.11602175959844674, 0.12619187505961749], [-1.2292135357554921, 0.0018088401120043627, 0.77200795667604183, -0.32146620560358197, -0.48553948845909733, 0.99358193541903383, -0.89180907428066991, 0.44903945335898443, -0.078855813513401443], [-0.0161106080942943, 0.91502754603777503, -0.033250431640503869, 0.0035717339648302406, -0.0077005723043566858, -0.039229842159523687, -0.027918039376989466, -0.004212206915050188, 0.0093872861726296483]], [[0.74365316681522997, -1.8325153453843475, 1.7966149961889299, -1.6266965886170075, 2.1770949733514025, -2.4485074269220855, 2.1523613600786322, -1.23431423720884, 0.44626210245003634], [-0.97211239388827142, -0.65583297504129767, 0.75131818368558445, -0.81702832762692967, -0.30436817656715498, 0.043921534369900969, -1.2403426156957322, 0.8806916259117874, -1.0639728721038593], [0.052582644525630898, -0.78966421788179664, 1.3145814304280576, -1.3851798281468819, 1.062087995519486, -0.72875810942285502, 0.41855942355876441, -0.17938822248218661, 0.039533277368119485], [0.0053395009038718477, -0.023517656372874701, 0.89173428853062819, -0.042426652898953747, 0.0078643840883372666, -0.00032218551694369315, 0.003284604013847977, 0.00047642553836090034, -0.046277964481040254]], [[0.29254338382264478, -0.34751631544237971, -1.0751151561480048, 1.0637938323867187, 0.19333069326484562, -0.93534019329653051, 0.30768988254377777, 0.13877709921242559, -0.49250495864727134], [0.15204241580221353, -0.34699832971657307, -0.7225865792438495, 0.32330461780103337, 0.02395883106459986, -1.2688574324278381, 0.60641311146617771, -0.2806306759404783, -0.3742276229141952], [0.00060374298053204802, 0.0093694924177361288, -0.031155363824171365, 0.86872071020087138, -0.049270849264296757, 0.0117026690340848, -0.00019496232523702193, 0.0083212598828053333, 0.0099117327265185774], [0.00060374298057405749, 0.00936949241809883, -0.031155363824077409, 0.86872071020482522, -0.049270849265480601, 0.011702669034275, -0.00019496232524069274, 0.0083212598814860483, 0.0099117327264521844]], [[0.20854699584174538, 0.79925347728968621, -0.41252914092200188, -0.52660058602946203, 1.0097618067675416, -0.73624602766351921, 0.43673124106279715, -0.076879503973994595, 0.018905436254254955], [-0.38596998058656495, -0.045462884978509949, 0.56105869624573945, 0.071110243388997213, -0.03697153001160812, 0.38762335352801425, 0.49861931000380533, -0.68433542439681938, 0.70299034278664796], [0.0021070425145214627, 0.0024511477679678966, 0.011590976166099661, -0.042095675753713861, 0.8460788858196342, -0.053841560998304394, 0.016189557791631861, -0.0001308191908775469, 0.0080983348465825042], [0.002107042514155162, 0.002451147768280656, 0.011590976165248845, -0.042095675751346165, 0.84607888583181778, -0.053841560999669247, 0.01618955779217205, -0.00013081919101429857, 0.0080983348475446217]], [[0.46961105662896163, 0.45205228601080727, 0.31184369034131937, -0.021535583856348784, -0.4070422313320966, 0.6367437416483217, -1.0291561155818325, 0.79407391683594897, -0.41264432616115548], [0.0018307074178771894, 0.005053125486002329, 0.0030444579854860499, 0.012479782870905287, -0.050008919835055246, 0.8233692330845821, -0.062898221997872303, 0.018329707031912966, -0.0033932823653030613], [0.0018307074180502559, 0.0050531254859873444, 0.0030444579861579092, 0.012479782870418977, -0.050008919824383394, 0.82336923307873522, -0.062898222005177418, 0.018329707032542188, -0.0033932823655171743], [0.0018307074180801076, 0.0050531254864103871, 0.0030444579861840931, 0.012479782871353894, -0.050008919833610881, 0.8233692330822836, -0.062898222001799647, 0.018329707033960578, -0.0033932823656356872]]], prehc: 10000, lambdahc: 1, rcut: 7, dcut: 0.01, rcut_in: 1.0002, dcut_in: 0.10000000000000001, inner_cutoff_type: distance}
  [3, 0]: {nradmax: 6, lmax: 3, nradbasemax: 9, radbasename: SBessel, radparameters: [5.25], radcoefficients: [[[3.672624958360343, -3.1812697618404031, 1.9731651068976062, -0.51969041903110713, -0.36973585889803329, 0.8591374008406093, -0.74981778271025501, 0.48883853094784457, -0.062528457853879657], [2.7627599964740099, -0.96197408439244625, -0.066406539512551682, 0.18146499587476583, -1.0170728642715923, 1.3938167787238755, -1.1947194200506108, 0.41833556434842462, -0.20750523658298045], [1.7290559276718545, -1.2755972841849998, 1.4185315254130413, -0.43421697063063847, -0.084627260438956423, 0.65450846449961153, -0.62240514787784307, 0.54930049105276135, -0.47594899134306135], [0.97158274400351818, -0.2838979120429137, -0.12348459325307606, 0.78899476514896971, -0.6728254355395662, 0.51014789839755603, -0.22485323471738705, 0.12300595097975112, 0.026854448816192641]], [[1.6335278519971799, 1.9909891509717339, 0.01729057847651241, 1.5400287836198454, -0.17573623119331694, 0.805703362730946, -0.22582831808272877, 0.11606718161526614, 0.35460850770697167], [0.62029798847388407, 1.5651277130346462, -0.92924067918535203, -0.37271161127664082, 0.077575758106488549, -0.5663954711147543, 0.46633126534416225, -1.4393161838156752, 0.63236853731957887], [-1.0509326717627432, 0.96764688835032964, 0.20343904189480641, -1.0097135382504607, 1.1642624816335845, -0.98752654912850124, 0.72203497820487794, -0.21004035441296021, -0.19916571431830962], [-0.0083927095081327476, 0.95474652711764596, -0.018183731344312462, 0.0016954125854262499, -0.0034373057082941892, -0.020376231381330299, -0.015608044037221894, -0.0031305762862427499, 0.0056664527528189077]], [[1.1719231016669818, 0.54881149416253705, 1.5200522337909579, -0.87670325600432553, 1.7383361444481999, -1.0846341843260829, 0.78883861985159953, -0.49883459522986834, 0.24120041579305998], [0.022309715968959927, -0.75651243670373913, 1.1914999749441093, 1.1207178391901345, -0.59180833524415155, -0.34066738600077268, 0.53738299324571237, -0.30500247354645654, 0.43097062332667507], [-0.35763174455727753, -0.71360581975825144, 0.51809895761000357, -0.8823043214623516, 1.1288040895368963, -0.17274080252834773, -0.22852552234080895, 0.043623089683446734, 0.51988707135823786], [0.002742415627584773, -0.012841010113154952, 0.94232581196055132, -0.021936235102477625, 0.0046404705998689504, -0.00014099208403353032, 0.0017914856632877173, -0.00077335177692995226, -0.02589901438814244]], [[-0.16625270431038913, -0.54955805288155024, -0.10033739720274487, 1.3030694509897649, 0.19286793941371499, 1.2700626635750392, -0.42978647028983025, -0.17319358915160268, 0.37059521050377331], [0.22531452579270786, -0.13764347825383721, -0.28683638256136074, 1.0181148509170879, -0.077437302494562016, -0.03305994805485124, 1.0483354269781038, 0.45696562313436284, -0.30490155467870805], [0.00024842059942786429, 0.0047326921614663595, -0.016228677191371815, 0.93009605670690432, -0.026676241645490706, 0.0067693223144711812, -0.00025127653684249758, 0.0040400712490967355, 0.0059225945302506773], [0.00024842059940130811, 0.0047326921619063505, -0.016228677189768444, 0.93009605671315465, -0.02667624164698558, 0.0067693223144999195, -0.00025127653687248786, 0.0040400712488144518, 0.0059225945305433599]], [[-0.23125603617615201, -0.10694140076031812, -0.18928139495026117, -0.28448786076400773, 1.3338326073824931, -0.16551263514440465, 0.34971773356363028, 0.25095577342511621, 0.53804232953242692], [0.088634425798897645, -0.023451169091718092, -0.25287821971102414, -0.30524620971874922, 1.271446239281171, -0.40385959679079136, -0.1802502738275745, 0.31556729461675215, -0.27703607150102766], [0.00085151490793544161, 0.0012416445907294533, 0.0059894547021396623, -0.021756941768445531, 0.91803049059153086, -0.02954563155189464, 0.0092091439642631688, 0.00079230164537365212, 0.0062649514074555731], [0.00085151490811905331, 0.0012416445906764878, 0.0059894547018186691, -0.021756941770079807, 0.91803049058295205, -0.029545631552703247, 0.0092091439648835389, 0.00079230164580891148, 0.0062649514073133692]], [[0.71322467042711213, 0.060755916664375721, -0.33392687466578669, 0.28987612478664504, 0.17166614391610344, 0.92159822051675433, -0.60154253471510133, -0.52121250612546255, -0.17092753317323375], [0.0012164547240935712, 0.00257008190003235, 0.00099282295872991813, 0.0067258747670823271, -0.025648436406333592, 0.90594806670879291, -0.034795444205215645, 0.0096943921952668544, -0.00016661481018968925], [0.0012164547239457602, 0.0025700819000670284, 0.00099282295857908999, 0.0067258747669019575, -0.025648436410734332, 0.90594806672097061, -0.034795444204907849, 0.0096943921943323987, -0.00016661481020884729], [0.0012164547240488179, 0.0025700819001193398, 0.00099282295869030182, 0.006725874767405827, -0.025648436409607709, 0.90594806671116634, -0.034795444206504995, 0.0096943921939154007, -0.0001666148102004476]]], prehc: 10000, lambdahc: 1, rcut: 7, dcut: 0.01, rcut_in: 1.0002, dcut_in: 0.10000000000000001, inner_cutoff_type: distance}
  [3, 1]: {nradmax: 6, lmax: 3, nradbasemax: 9, radbasename: SBessel, radparameters: [5.25], radcoefficients: [[[4.3334054512203686, -4.0287166778538079, 2.9794771198688141, -1.9624564933739401, 1.2775173428590096, -0.7616710342148052, 0.41614922137788901, -0.16700274338400634, 0.044262007864018724], [3.2219426896553935, -3.0994372574061568, 2.0668236951112418, -0.86270863386441943, 0.0078769531241177151, 0.33799100751126998, -0.38172038682598891, 0.18348955487872518, -0.081609582753845195], [2.3162793373345605, -2.2662169240220056, 1.523163407760602, -0.5343451955042311, -0.24788816885126608, 0.55361200236448482, -0.43423039691960585, 0.15540795831025705, 0.012278369309645699], [0.59100020827264788, 0.37552373191906141, -0.97077502798709459, 1.0394595487748126, -0.74279606373264195, 0.36682929992246494, -0.1533353761440045, -0.030055130045888407, 0.077324903840548492]], [[1.6435355490881727, 1.2068812140622756, -3.0845768213270714, 2.9885953401344718, -1.6175751775159455, 0.42922068745295039, 0.36849860769550075, -0.357224040777678, 0.21515416531563297], [-0.90950724782964065, 2.1655493541391144, -2.7019512727570332, 2.3753752254681535, -1.3957377644033213, 0.58756534263394267, 0.0048419007707735436, -0.11602175959844674, 0.12619187505961749], [-1.2292135357554921, 0.0018088401120043627, 0.77200795667604183, -0.32146620560358197, -0.48553948845909733, 0.99358193541903383, -0.89180907428066991, 0.44903945335898443, -0.078855813513401443], [-0.0161106080942943, 0.91502754603777503, -0.033250431640503869, 0.0035717339648302406, -0.0077005723043566858, -0.039229842159523687, -0.027918039376989466, -0.004212206915050188, 0.0093872861726296483]], [[0.74365316681522997, -1.8325153453843475, 1.7966149961889299, -1.6266965886170075, 2.1770949733514025, -2.4485074269220855, 2.1523613600786322, -1.23431423720884, 0.44626210245003634], [-0.97211239388827142, -0.65583297504129767, 0.75131818368558445, -0.81702832762692967, -0.30436817656715498, 0.043921534369900969, -1.2403426156957322, 0.8806916259117874, -1.0639728721038593], [0.052582644525630898, -0.78966421788179664, 1.3145814304280576, -1.3851798281468819, 1.062087995519486, -0.72875810942285502, 0.41855942355876441, -0.17938822248218661, 0.039533277368119485], [0.0053395009038718477, -0.023517656372874701, 0.89173428853062819, -0.042426652898953747, 0.0078643840883372666, -0.00032218551694369315, 0.003284604013847977, 0.00047642553836090034, -0.046277964481040254]], [[0.29254338382264478, -0.34751631544237971, -1.0751151561480048, 1.0637938323867187, 0.19333069326484562, -0.93534019329653051, 0.30768988254377777, 0.13877709921242559, -0.49250495864727134], [0.15204241580221353, -0.34699832971657307, -0.7225865792438495, 0.32330461780103337, 0.02395883106459986, -1.2688574324278381, 0.60641311146617771, -0.2806306759404783, -0.3742276229141952], [0.00060374298053204802, 0.0093694924177361288, -0.031155363824171365, 0.86872071020087138, -0.049270849264296757, 0.0117026690340848, -0.00019496232523702193, 0.0083212598828053333, 0.0099117327265185774], [0.00060374298057405749, 0.00936949241809883, -0.031155363824077409, 0.86872071020482522, -0.049270849265480601, 0.011702669034275, -0.00019496232524069274, 0.0083212598814860483, 0.0099117327264521844]], [[0.20854699584174538, 0.79925347728968621, -0.41252914092200188, -0.52660058602946203, 1.0097618067675416, -0.73624602766351921, 0.43673124106279715, -0.076879503973994595, 0.018905436254254955], [-0.38596998058656495, -0.045462884978509949, 0.56105869624573945, 0.071110243388997213, -0.03697153001160812, 0.38762335352801425, 0.49861931000380533, -0.68433542439681938, 0.70299034278664796], [0.0021070425145214627, 0.0024511477679678966, 0.011590976166099661, -0.042095675753713861, 0.8460788858196342, -0.053841560998304394, 0.016189557791631861, -0.0001308191908775469, 0.0080983348465825042], [0.002107042514155162, 0.002451147768280656, 0.011590976165248845, -0.042095675751346165, 0.84607888583181778, -0.053841560999669247, 0.01618955779217205, -0.00013081919101429857, 0.0080983348475446217]], [[0.46961105662896163, 0.45205228601080727, 0.31184369034131937, -0.021535583856348784, -0.4070422313320966, 0.6367437416483217, -1.0291561155818325, 0.79407391683594897, -0.41264432616115548], [0.0018307074178771894, 0.005053125486002329, 0.0030444579854860499, 0.012479782870905287, -0.050008919835055246, 0.8233692330845821, -0.062898221997872303, 0.018329707031912966, -0.0033932823653030613], [0.0018307074180502559, 0.0050531254859873444, 0.0030444579861579092, 0.012479782870418977, -0.050008919824383394, 0.82336923307873522, -0.062898222005177418, 0.018329707032542188, -0.0033932823655171743], [0.0018307074180801076, 0.0050531254864103871, 0.0030444579861840931, 0.012479782871353894, -0.050008919833610881, 0.8233692330822836, -0.062898222001799647, 0.018329707033960578, -0.0033932823656356872]]], prehc: 10000, lambdahc: 1, rcut: 7, dcut: 0.01, rcut_in: 1.0002, dcut_in: 0.10000000000000001, inner_cutoff_type: distance}
  [3, 2]: {nradmax: 6, lmax: 3, nradbasemax: 9, radbasename: SBessel, radparameters: [5.25], radcoefficients: [[[4.3334054512203686, -4.0287166778538079, 2.9794771198688141, -1.9624564933739401, 1.2775173428590096, -0.7616710342148052, 0.41614922137788901, -0.16700274338400634, 0.044262007864018724], [3.2219426896553935, -3.0994372574061568, 2.0668236951112418, -0.86270863386441943, 0.0078769531241177151, 0.33799100751126998, -0.38172038682598891, 0.18348955487872518, -0.081609582753845195], [2.3162793373345605, -2.2662169240220056, 1.523163407760602, -0.5343451955042311, -0.24788816885126608, 0.55361200236448482, -0.43423039691960585, 0.15540795831025705, 0.012278369309645699], [0.59100020827264788, 0.37552373191906141, -0.97077502798709459, 1.0394595487748126, -0.74279606373264195, 0.36682929992246494, -0.1533353761440045, -0.030055130045888407, 0.077324903840548492]], [[1.6435355490881727, 1.2068812140622756, -3.0845768213270714, 2.9885953401344718, -1.6175751775159455, 0.42922068745295039, 0.36849860769550075, -0.357224040777678, 0.21515416531563297], [-0.90950724782964065, 2.1655493541391144, -2.7019512727570332, 2.3753752254681535, -1.3957377644033213, 0.58756534263394267, 0.0048419007707735436, -0.11602175959844674, 0.12619187505961749], [-1.2292135357554921, 0.0018088401120043627, 0.77200795667604183, -0.32146620560358197, -0.48553948845909733, 0.99358193541903383, -0.89180907428066991, 0.44903945335898443, -0.078855813513401443], [-0.0161106080942943, 0.91502754603777503, -0.033250431640503869, 0.0035717339648302406, -0.0077005723043566858, -0.039229842159523687, -0.027918039376989466, -0.004212206915050188, 0.0093872861726296483]], [[0.74365316681522997, -1.8325153453843475, 1.7966149961889299, -1.6266965886170075, 2.1770949733514025, -2.4485074269220855, 2.1523613600786322, -1.23431423720884, 0.44626210245003634], [-0.97211239388827142, -0.65583297504129767, 0.75131818368558445, -0.81702832762692967, -0.30436817656715498, 0.043921534369900969, -1.2403426156957322, 0.8806916259117874, -1.0639728721038593], [0.052582644525630898, -0.78966421788179664, 1.3145814304280576, -1.3851798281468819, 1.062087995519486, -0.72875810942285502, 0.41855942355876441, -0.17938822248218661, 0.039533277368119485], [0.0053395009038718477, -0.023517656372874701, 0.89173428853062819, -0.042426652898953747, 0.0078643840883372666, -0.00032218551694369315, 0.003284604013847977, 0.00047642553836090034, -0.046277964481040254]], [[0.29254338382264478, -0.34751631544237971, -1.0751151561480048, 1.0637938323867187, 0.19333069326484562, -0.93534019329653051, 0.30768988254377777, 0.13877709921242559, -0.49250495864727134], [0.15204241580221353, -0.34699832971657307, -0.7225865792438495, 0.32330461780103337, 0.02395883106459986, -1.2688574324278381, 0.60641311146617771, -0.2806306759404783, -0.3742276229141952], [0.00060374298053204802, 0.0093694924177361288, -0.031155363824171365, 0.86872071020087138, -0.049270849264296757, 0.0117026690340848, -0.00019496232523702193, 0.0083212598828053333, 0.0099117327265185774], [0.00060374298057405749, 0.00936949241809883, -0.031155363824077409, 0.86872071020482522, -0.049270849265480601, 0.011702669034275, -0.00019496232524069274, 0.0083212598814860483, 0.0099117327264521844]], [[0.20854699584174538, 0.79925347728968621, -0.41252914092200188, -0.52660058602946203, 1.0097618067675416, -0.73624602766351921, 0.43673124106279715, -0.076879503973994595, 0.018905436254254955], [-0.38596998058656495, -0.045462884978509949, 0.56105869624573945, 0.071110243388997213, -0.03697153001160812, 0.38762335352801425, 0.49861931000380533, -0.68433542439681938, 0.70299034278664796], [0.0021070425145214627, 0.0024511477679678966, 0.011590976166099661, -0.042095675753713861, 0.8460788858196342, -0.053841560998304394, 0.016189557791631861, -0.0001308191908775469, 0.0080983348465825042], [0.002107042514155162, 0.002451147768280656, 0.011590976165248845, -0.042095675751346165, 0.84607888583181778, -0.053841560999669247, 0.01618955779217205, -0.00013081919101429857, 0.0080983348475446217]], [[0.46961105662896163, 0.45205228601080727, 0.31184369034131937, -0.021535583856348784, -0.4070422313320966, 0.6367437416483217, -1.0291561155818325, 0.79407391683594897, -0.41264432616115548], [0.0018307074178771894, 0.005053125486002329, 0.0030444579854860499, 0.012479782870905287, -0.050008919835055246, 0.8233692330845821, -0.062898221997872303, 0.018329707031912966, -0.0033932823653030613], [0.0018307074180502559, 0.0050531254859873444, 0.0030444579861579092, 0.012479782870418977, -0.050008919824383394, 0.82336923307873522, -0.062898222005177418, 0.018329707032542188, -0.0033932823655171743], [0.0018307074180801076, 0.0050531254864103871, 0.0030444579861840931, 0.012479782871353894, -0.050008919833610881, 0.8233692330822836, -0.062898222001799647, 0.018329707033960578, -0.0033932823656356872]]], prehc: 10000, lambdahc: 1, rcut: 7, dcut: 0.01, rcut_in: 1.0002, dcut_in: 0.10000000000000001, inner_cutoff_type: distance}
  [3, 3]: {nradmax: 6, lmax: 3, nradbasemax: 11, radbasename: SBessel, radparameters: [5.25], radcoefficients: [[[2.8660258752309602, -2.1423302067283627, 0.46843563719397929, 0.67421741939247981, -1.3991305127530338, 1.4975811840134987, -1.5393795437543851, 1.3196726590378616, -1.0195510799196359, 0.57662738521427914, -0.20342222631126378], [1.8387086122912562, -1.3195329824338915, -0.50331697452608559, 1.1524248785015341, -0.11560487745754409, -1.0003305489559273, 1.3974612969004485, -0.52570397203642072, -0.33886101895519727, 0.31985355476989324, 0.063849533321091959], [1.6076089281467321, -1.8274614690774595, 0.96688458094856733, -0.20942777542493193, -0.57957940236489713, 0.66574343235649236, -0.49851063634806103, 0.20932477438190517, -0.12575570038741163, 0.030370432797422745, 0.025295787628824892], [1.2124466890196455, -1.6408137985360467, 1.3491709778420928, -0.74293875956601019, 0.053217351794086522, 0.275276814827494, -0.52420676842985492, 0.19478895307136013, -0.11847967404247312, -0.09915144021678772, 0.010774719467200124]], [[-1.3481855891140468, 2.0993134614005928, -2.4186430145103568, 1.8695976699315493, -1.1654237930883611, 0.78656729995837738, -0.71369329262951597, 0.55846475943805907, -0.33987009036149041, 0.1437422156346613, -0.034921431689673765], [0.051162282041778459, -0.09224199964407459, -1.5193103494481843, 0.065312320435402069, 1.2055847220854312, -1.741987255429756, 1.7005366089028582, -0.57947166458160548, -0.3123485591625827, 0.022030771182716024, 0.23732468504062532], [0.026103941676312324, 0.69723137169467841, -1.2235263617188927, 0.94693191204100413, -0.12512294773147836, -0.50960416195614777, 0.66054423324031941, -0.58412854031688344, 0.30420043654845869, -0.14731420670683057, 0.039802853694444515], [-0.17305663797191603, 0.40115333048041563, -0.76767295167643446, 0.94176794256546925, -0.32743959324936434, -0.33310712717763219, -0.006454361144351526, -1.0405365767808699, 0.58277331018708389, -0.81893837382719281, -0.22270648263874399]], [[3.1985593773069421, -2.339489723423311, 1.3860339642367818, -1.033905533351287, 1.3315068665094045, -1.4685555927036107, 1.0953977347906709, -0.53995022500808132, 0.063991463550772218, 0.088420396578875557, -0.063483145008572384], [-2.1897528551620242, 1.6456339223986411, 0.57712398797145326, 0.16550336854888512, -0.62067087524042075, 0.80112488121533998, -0.8654185005469831, 0.28348165635386069, 0.23392304816706364, 0.037294227389711117, -0.21485037971269635], [-0.79811377950545281, 0.19322230247122632, 0.32685065901117777, -0.63783248359098932, 0.18261125026958605, 1.0314869438286027, -0.99485882525929281, 0.1250988984530377, 0.15683461072659213, 0.019098395552885117, -0.066720722956510298], [0.94138209642941562, -0.049557377299746026, -0.11000677832586601, 0.05570836314232424, 0.84189816200741485, -0.58880927966267416, -0.043333221431431132, 0.48207766568803934, -0.62467687015977513, 0.46855027198539284, -0.59323683877675992]], [[0.043761708250533347, 1.0397517438184034, -1.5876276314632174, 1.407494004616626, -0.40385689710409334, -0.58403888050662589, 0.99882723710953525, -0.78465077511489134, 0.28612001573253831, -0.051883960918673075, -0.0023738668855612902], [0.45389372287382418, 0.5797448892032443, -1.8561191613375656, 1.6472725402603232, -0.99056542687486382, 0.53645491214538499, -0.26984294911405982, 0.35575407979653101, -0.42618353499889172, 0.17414180212647509, 0.024374059356831443], [-0.0020887326143719086, -0.090267300249812929, -0.82169363711256105, 0.44628558886883202, -0.80110835722389362, -0.17133977004209569, 0.34232482217272026, 0.04806911740992334, -0.67611621861976834, 0.43762179793273592, -0.32777194524936137], [0.00023343377182151326, 0.0044450144876115273, -0.01524218006313152, 0.93434579282396968, -0.025054383524190638, 0.0063577389977434754, -0.00023608009244628311, 0.003794548305460812, 0.005562571259697403, 0.0022737414055753404, -0.0043589015298429561]], [[0.040604424994696429, 0.33293941735991822, 0.26447614468481739, -1.0881228884248264, 1.5476622010497016, -0.96450410583953705, 0.27284680261741695, 0.70318737824336142, -1.1248301245038945, 0.83689817188321269, -0.26235902951551276], [-0.29928843190966276, 0.22704174325096604, -0.92573993726736425, -0.74990324521534713, 0.91888970476453169, -0.42260213451629519, 0.10936176686072946, -0.37808948621607019, 0.13924106412400419, -0.2778828682493405, -0.29068271555177239], [-0.038765273760323897, -0.21617748759131594, -0.26324538008539716, -0.54971280729989713, 0.5393440543734257, -0.53987177559393806, 0.33320293522412259, -0.011920251993438788, -0.66435649096555693, 0.56006348862730926, -0.49791313299062401], [0.00072390799877000342, 0.001055600139139154, 0.0056030150701142827, -0.020372097003062573, 0.92300784269368841, -0.027820156233549109, 0.0088171506837456531, 0.0013552464180006645, 0.0065785530831755541, 0.0052587334641214355, 0.0034503083774912132]], [[1.5368989125531756, 0.88717600573359368, -0.025151267525653453, 0.53814339877335859, -0.51932873992774342, 0.32245577583793561, -0.10253144701281687, 0.29289295540906313, 0.029017090160993134, 0.39277760668616607, -0.44619617851753696], [0.093926560700829567, -0.10876749167477978, 0.80821367775313191, 0.4115846709688516, -0.55175862017017163, 0.66589638153504671, -0.65462519232866179, -0.21153901123066302, 0.086114392804195791, 0.18846110253163234, -0.92871956020883439], [0.0010736142321201775, 0.0024480265435156885, 0.0011113313826500906, 0.0062936089865163001, -0.024366748194855233, 0.91167154336811407, -0.032306774059658767, 0.0091231580478118943, -0.00062359912559643513, -8.626165961467872e-05, -0.0016090765995361391], [0.0010736142320575261, 0.0024480265434460888, 0.0011113313826951778, 0.0062936089876332183, -0.024366748200160607, 0.91167154337616996, -0.0323067740617521, 0.0091231580483583444, -0.0006235991253176462, -8.6261659662167548e-05, -0.0016090765992993437]]], prehc: 10000, lambdahc: 1, rcut: 7, dcut: 0.01, rcut_in: 1.0002, dcut_in: 0.10000000000000001, inner_cutoff_type: distance}
functions:
  0:
    - {mu0: 0, rank: 1, ndensity: 2, num_ms_combs: 1, mus: [0], ns: [1], ls: [0], ms_combs: [0], ctildes: [-0.59172107180397915, -1.4966672975694152e-05]}
    - {mu0: 0, rank: 1, ndensity: 2, num_ms_combs: 1, mus: [0], ns: [2], ls: [0], ms_combs: [0], ctildes: [-0.0002043591246259502, 0.0006932389575412029]}
    - {mu0: 0, rank: 1, ndensity: 2, num_ms_combs: 1, mus: [0], ns: [3], ls: [0], ms_combs: [0], ctildes: [0.45669572898395722, 0.25844766023352633]}
    - {mu0: 0, rank: 1, ndensity: 2, num_ms_combs: 1, mus: [0], ns: [4], ls: [0], ms_combs: [0], ctildes: [-0.13817842781103398, -0.0012681109886751444]}
    - {mu0: 0, rank: 1, ndensity: 2, num_ms_combs: 1, mus: [0], ns: [5], ls: [0], ms_combs: [0], ctildes: [-0.085226109333315023, -0.014453048749227794]}
    - {mu0: 0, rank: 1, ndensity: 2, num_ms_combs: 1, mus: [0], ns: [6], ls: [0], ms_combs: [0], ctildes: [0.082754818745449876, 0.00049674515572181027]}
    - {mu0: 0, rank: 1, ndensity: 2, num_ms_combs: 1, mus: [0], ns: [7], ls: [0], ms_combs: [0], ctildes: [-2.2224869874361425e-05, -3.4259279928610008e-05]}
    - {mu0: 0, rank: 1, ndensity: 2, num_ms_combs: 1, mus: [0], ns: [8], ls: [0], ms_combs: [0], ctildes: [-0.050017480892505212, -0.098977073463927395]}
    - {mu0: 0, rank: 1, ndensity: 2, num_ms_combs: 1, mus: [0], ns: [9], ls: [0], ms_combs: [0], ctildes: [0.053036192560373265, 0.045304799230193628]}
    - {mu0: 0, rank: 1, ndensity: 2, num_ms_combs: 1, mus: [0], ns: [10], ls: [0], ms_combs: [0], ctildes: [-0.093714783961855785, -0.0014788836334228711]}
    - {mu0: 0, rank: 1, ndensity: 2, num_ms_combs: 1, mus: [0], ns: [11], ls: [0], ms_combs: [0], ctildes: [0.10150035582549663, -0.050457515383170795]}
    - {mu0: 0, rank: 1, ndensity: 2, num_ms_combs: 1, mus: [1], ns: [1], ls: [0], ms_combs: [0], ctildes: [-0.020293837900032335, 2.2193645332518401e-06]}
    - {mu0: 0, rank: 1, ndensity: 2, num_ms_combs: 1, mus: [1], ns: [2], ls: [0], ms_combs: [0], ctildes: [-8.2271974527557849e-07, -5.4433625605045809e-06]}
    - {mu0: 0, rank: 1, ndensity: 2, num_ms_combs: 1, mus: [1], ns: [3], ls: [0], ms_combs: [0], ctildes: [-2.8290129932122156e-06, 3.6952975067953649e-06]}
    - {mu0: 0, rank: 1, ndensity: 2, num_ms_combs: 1, mus: [1], ns: [4], ls: [0], ms_combs: [0], ctildes: [-0.1620941094816527, -9.3930639991375518e-05]}
    - {mu0: 0, rank: 1, ndensity: 2, num_ms_combs: 1, mus: [1], ns: [5], ls: [0], ms_combs: [0], ctildes: [-0.022381057982863172, -2.3659232146757618e-06]}
    - {mu0: 0, rank: 1, ndensity: 2, num_ms_combs: 1, mus: [1], ns: [6], ls: [0], ms_combs: [0], ctildes: [-0.0016945010901449678, 3.0134571461176726e-06]}
    - {mu0: 0, rank: 1, ndensity: 2, num_ms_combs: 1, mus: [1], ns: [7], ls: [0], ms_combs: [0], ctildes: [-2.9387790398990391e-06, 4.4619805293072424e-06]}
    - {mu0: 0, rank: 1, ndensity: 2, num_ms_combs: 1, mus: [1], ns: [8], ls: [0], ms_combs: [0], ctildes: [0.00016397585844477838, 5.8193720739142796e-05]}
    - {mu0: 0, rank: 1, ndensity: 2, num_ms_combs: 1, mus: [1], ns: [9], ls: [0], ms_combs: [0], ctildes: [-0.004504238990114106, 0.0027619326899811199]}
    - {mu0: 0, rank: 1, ndensity: 2, num_ms_combs: 1, mus: [2], ns: [1], ls: [0], ms_combs: [0], ctildes: [-0.079456262849842377, -0.036627733454001409]}
    - {mu0: 0, rank: 1, ndensity: 2, num_ms_combs: 1, mus: [2], ns: [2], ls: [0], ms_combs: [0], ctildes: [1.1655322880676419e-05, 1.012663070049263e-05]}
    - {mu0: 0, rank: 1, ndensity: 2, num_ms_combs: 1, mus: [2], ns: [3], ls: [0], ms_combs: [0], ctildes: [-1.2285206530129543e-06, 5.3428879583305231e-06]}
    - {mu0: 0, rank: 1, ndensity: 2, num_ms_combs: 1, mus: [2], ns: [4], ls: [0], ms_combs: [0], ctildes: [-0.20053971525033107, -4.960135548781635e-05]}
    - {mu0: 0, rank: 1, ndensity: 2, num_ms_combs: 1, mus: [2], ns: [5], ls: [0], ms_combs: [0], ctildes: [6.7440702442967279e-06, -7.7243553603078566e-06]}
    - {mu0: 0, rank: 1, ndensity: 2, num_ms_combs: 1, mus: [2], ns: [6], ls: [0], ms_combs: [0], ctildes: [-5.8986280654557429e-05, -1.4775647398229936e-05]}
    - {mu0: 0, rank: 1, ndensity: 2, num_ms_combs: 1, mus: [2], ns: [7], ls: [0], ms_combs: [0], ctildes: [-8.6540366678923087e-05, 0.0051470315717333185]}
    - {mu0: 0, rank: 1, ndensity: 2, num_ms_combs: 1, mus: [2], ns: [8], ls: [0], ms_combs: [0], ctildes: [-0.00040173648749556711, 0.0021370948744306589]}
    - {mu0: 0, rank: 1, ndensity: 2, num_ms_combs: 1, mus: [2], ns: [9], ls: [0], ms_combs: [0], ctildes: [0.024955330412530542, -0.0049707878433370919]}
    - {mu0: 0, rank: 1, ndensity: 2, num_ms_combs: 1, mus: [3], ns: [1], ls: [0], ms_combs: [0], ctildes: [-0.54644614197155517, -0.0019294171774303873]}
    - {mu0: 0, rank: 1, ndensity: 2, num_ms_combs: 1, mus: [3], ns: [2], ls: [0], ms_combs: [0], ctildes: [-0.037949484526997292, -6.2405891426504373e-07]}
    - {mu0: 0, rank: 1, ndensity: 2, num_ms_combs: 1, mus: [3], ns: [3], ls: [0], ms_combs: [0], ctildes: [-0.16963121534385714, 9.5418566756594547e-06]}
    - {mu0: 0, rank: 1, ndensity: 2, num_ms_combs: 1, mus: [3], ns: [4], ls: [0], ms_combs: [0], ctildes: [-0.29738072489284351, 1.5925265181326002e-05]}
    - {mu0: 0, rank: 1, ndensity: 2, num_ms_combs: 1, mus: [3], ns: [5], ls: [0], ms_combs: [0], ctildes: [1.5974241184795019e-05, -0.00088123377657144683]}
    - {mu0: 0, rank: 1, ndensity: 2, num_ms_combs: 1, mus: [3], ns: [6], ls: [0], ms_combs: [0], ctildes: [-1.5045416280065107e-05, 1.7328207839246245e-05]}
    - {mu0: 0, rank: 1, ndensity: 2, num_ms_combs: 1, mus: [3], ns: [7], ls: [0], ms_combs: [0], ctildes: [-0.004037316436903849, 0.0075124090157051579]}
    - {mu0: 0, rank: 1, ndensity: 2, num_ms_combs: 1, mus: [3], ns: [8], ls: [0], ms_combs: [0], ctildes: [0.016684530914765395, -2.2731008477911174e-06]}
    - {mu0: 0, rank: 1, ndensity: 2, num_ms_combs: 1, mus: [3], ns: [9], ls: [0], ms_combs: [0], ctildes: [-0.042401454862976286, 1.4656424927471832e-05]}
    - {mu0: 0, rank: 2, ndensity: 2, num_ms_combs: 1, mus: [0, 0], ns: [1, 1], ls: [0, 0], ms_combs: [0, 0], ctildes: [0.073335215378810742, -0.012937002553270955]}
    - {mu0: 0, rank: 2, ndensity: 2, num_ms_combs: 2, mus: [0, 0], ns: [1, 1], ls: [1, 1], ms_combs: [0, 0, 1, -1], ctildes: [-0.00029425663447346401, -0.00014679981453575116, 0.00058851326894692791, 0.00029359962907150227]}
    - {mu0: 0, rank: 2, ndensity: 2, num_ms_combs: 3, mus: [0, 0], ns: [1, 1], ls: [2, 2], ms_combs: [0, 0, 1, -1, 2, -2], ctildes: [-9.9331454964559789e-05, -0.048548874098076074, 0.0001986629099291196, 0.097097748196152162, -0.00019866290992911966, -0.097097748196152175]}
    - {mu0: 0, rank: 2, ndensity: 2, num_ms_combs: 4, mus: [0, 0], ns: [1, 1], ls: [3, 3], ms_combs: [0, 0, 1, -1, 2, -2, 3, -3], ctildes: [-0.001091515722881296, -0.03171741562803243, 0.002183031445762592, 0.063434831256064861, -0.0021830314457625915, -0.063434831256064847, 0.0021830314457625915, 0.063434831256064847]}
    - {mu0: 0, rank: 2, ndensity: 2, num_ms_combs: 1, mus: [0, 0], ns: [1, 2], ls: [0, 0], ms_combs: [0, 0], ctildes: [-0.2050150456531834, -0.041282928354632549]}
    - {mu0: 0, rank: 2, ndensity: 2, num_ms_combs: 2, mus: [0, 0], ns: [1, 2], ls: [1, 1], ms_combs: [0, 0, 1, -1], ctildes: [-0.00032291957886152253, -4.0947060728995091e-06, 0.00064583915772304496, 8.1894121457990166e-06]}
    - {mu0: 0, rank: 2, ndensity: 2, num_ms_combs: 3, mus: [0, 0], ns: [1, 2], ls: [2, 2], ms_combs: [0, 0, 1, -1, 2, -2], ctildes: [-0.0062375043550598969, -0.030469079156045145, 0.012475008710119796, 0.060938158312090297, -0.012475008710119799, -0.060938158312090311]}
    - {mu0: 0, rank: 2, ndensity: 2, num_ms_combs: 4, mus: [0, 0], ns: [1, 2], ls: [3, 3], ms_combs: [0, 0, 1, -1, 2, -2, 3, -3], ctildes: [0.0030733848231259487, 0.0076556414689985305, -0.0061467696462518973, -0.015311282937997061, 0.0061467696462518965, 0.015311282937997057, -0.0061467696462518965, -0.015311282937997057]}
    - {mu0: 0, rank: 2, ndensity: 2, num_ms_combs: 1, mus: [0, 0], ns: [1, 3], ls: [0, 0], ms_combs: [0, 0], ctildes: [0.056068059822468992, 0.001875558736346417]}
    - {mu0: 0, rank: 2, ndensity: 2, num_ms_combs: 2, mus: [0, 0], ns: [1, 3], ls: [1, 1], ms_combs: [0, 0, 1, -1], ctildes: [-0.0035954502937153286, 0.0096116729832794699, 0.0071909005874306563, -0.019223345966558936]}
    - {mu0: 0, rank: 2, ndensity: 2, num_ms_combs: 3, mus: [0, 0], ns: [1, 3], ls: [2, 2], ms_combs: [0, 0, 1, -1, 2, -2], ctildes: [0.00016036962348659338, -0.0225906842549988, -0.00032073924697318681, 0.045181368509997606, 0.00032073924697318686, -0.045181368509997613]}
    - {mu0: 0, rank: 2, ndensity: 2, num_ms_combs: 4, mus: [0, 0], ns: [1, 3], ls: [3, 3], ms_combs: [0, 0, 1, -1, 2, -2, 3, -3], ctildes: [0.012102856403665405, 0.006767297932659332, -0.024205712807330811, -0.013534595865318664, 0.024205712807330807, 0.01353459586531866, -0.024205712807330807, -0.01353459586531866]}
    - {mu0: 0, rank: 2, ndensity: 2, num_ms_combs: 1, mus: [0, 0], ns: [1, 4], ls: [0, 0], ms_combs: [0, 0], ctildes: [-0.012235885966334478, 0.012415227787895836]}
    - {mu0: 0, rank: 2, ndensity: 2, num_ms_combs: 2, mus: [0, 0], ns: [1, 4], ls: [1, 1], ms_combs: [0, 0, 1, -1], ctildes: [-0.0082866677287174555, 0.0086238120462589687, 0.016573335457434911, -0.017247624092517934]}
    - {mu0: 0, rank: 2, ndensity: 2, num_ms_combs: 3, mus: [0, 0], ns: [1, 4], ls: [2, 2], ms_combs: [0, 0, 1, -1, 2, -2], ctildes: [-0.026015293807445498, -2.9965315814941942e-05, 0.052030587614891002, 5.9930631629883891e-05, -0.052030587614891016, -5.9930631629883911e-05]}
    - {mu0: 0, rank: 2, ndensity: 2, num_ms_combs: 1, mus: [0, 0], ns: [1, 5], ls: [0, 0], ms_combs: [0, 0], ctildes: [-0.0071113472001280639, -0.0060703815014085099]}
    - {mu0: 0, rank: 2, ndensity: 2, num_ms_combs: 2, mus: [0, 0], ns: [1, 5], ls: [1, 1], ms_combs: [0, 0, 1, -1], ctildes: [-0.0013096088336933672, -3.4150958955611055e-05, 0.0026192176673867341, 6.8301917911222097e-05]}
    - {mu0: 0, rank: 2, ndensity: 2, num_ms_combs: 3, mus: [0, 0], ns: [1, 5], ls: [2, 2], ms_combs: [0, 0, 1, -1, 2, -2], ctildes: [0.005968195904462693, 0.045379346607156548, -0.011936391808925388, -0.09075869321431311, 0.011936391808925391, 0.090758693214313138]}
    - {mu0: 0, rank: 2, ndensity: 2, num_ms_combs: 1, mus: [0, 0], ns: [1, 6], ls: [0, 0], ms_combs: [0, 0], ctildes: [-0.0012930048721666917, -0.038747704168693747]}
    - {mu0: 0, rank: 2, ndensity: 2, num_ms_combs: 2, mus: [0, 0], ns: [1, 6], ls: [1, 1], ms_combs: [0, 0, 1, -1], ctildes: [-0.00025135739449363124, 0.00040478508167419205, 0.00050271478898726238, -0.00080957016334838388]}
    - {mu0: 0, rank: 2, ndensity: 2, num_ms_combs: 1, mus: [0, 0], ns: [2, 2], ls: [0, 0], ms_combs: [0, 0], ctildes: [0.03094456615903355, 0.00010854880834155479]}
    - {mu0: 0, rank: 2, ndensity: 2, num_ms_combs: 2, mus: [0, 0], ns: [2, 2], ls: [1, 1], ms_combs: [0, 0, 1, -1], ctildes: [0.001639612739684721, -9.4446177043729147e-05, -0.003279225479369441, 0.00018889235408745824]}
    - {mu0: 0, rank: 2, ndensity: 2, num_ms_combs: 3, mus: [0, 0], ns: [2, 2], ls: [2, 2], ms_combs: [0, 0, 1, -1, 2, -2], ctildes: [0.0059833237611438628, 0.006526040292146415, -0.011966647522287727, -0.013052080584292832, 0.011966647522287731, 0.013052080584292835]}
    - {mu0: 0, rank: 2, ndensity: 2, num_ms_combs: 4, mus: [0, 0], ns: [2, 2], ls: [3, 3], ms_combs: [0, 0, 1, -1, 2, -2, 3, -3], ctildes: [0.001081759177955466, -0.015123422881590796, -0.0021635183559109319, 0.030246845763181592, 0.0021635183559109315, -0.030246845763181589, -0.0021635183559109315, 0.030246845763181589]}
    - {mu0: 0, rank: 2, ndensity: 2, num_ms_combs: 1, mus: [0, 0], ns: [2, 3], ls: [0, 0], ms_combs: [0, 0], ctildes: [0.0014247697479610557, 0.0051450538273143595]}
    - {mu0: 0, rank: 2, ndensity: 2, num_ms_combs: 2, mus: [0, 0], ns: [2, 3], ls: [1, 1], ms_combs: [0, 0, 1, -1], ctildes: [-0.008904049913700111, -0.00012512079887934182, 0.017808099827400219, 0.00025024159775868359]}
    - {mu0: 0, rank: 2, ndensity: 2, num_ms_combs: 3, mus: [0, 0], ns: [2, 3], ls: [2, 2], ms_combs: [0, 0, 1, -1, 2, -2], ctildes: [-0.001214359023469068, -0.010188849670365362, 0.002428718046938136, 0.020377699340730727, -0.0024287180469381368, -0.020377699340730731]}
    - {mu0: 0, rank: 2, ndensity: 2, num_ms_combs: 1, mus: [0, 0], ns: [2, 4], ls: [0, 0], ms_combs: [0, 0], ctildes: [0.0017900270599889054, 0.051256663688101271]}
    - {mu0: 0, rank: 2, ndensity: 2, num_ms_combs: 2, mus: [0, 0], ns: [2, 4], ls: [1, 1], ms_combs: [0, 0, 1, -1], ctildes: [0.00010208820182250866, 0.0060472157976980325, -0.00020417640364501729, -0.012094431595396063]}
    - {mu0: 0, rank: 2, ndensity: 2, num_ms_combs: 3, mus: [0, 0], ns: [2, 4], ls: [2, 2], ms_combs: [0, 0, 1, -1, 2, -2], ctildes: [0.0016275925251374064, 0.024267618038658217, -0.0032551850502748132, -0.04853523607731644, 0.0032551850502748141, 0.048535236077316454]}
    - {mu0: 0, rank: 2, ndensity: 2, num_ms_combs: 1, mus: [0, 0], ns: [2, 5], ls: [0, 0], ms_combs: [0, 0], ctildes: [-0.0027369528653000516, -0.025524476421987137]}
    - {mu0: 0, rank: 2, ndensity: 2, num_ms_combs: 2, mus: [0, 0], ns: [2, 5], ls: [1, 1], ms_combs: [0, 0, 1, -1], ctildes: [-0.0098750545420489694, 0.031045278005950638, 0.019750109084097935, -0.062090556011901263]}
    - {mu0: 0, rank: 2, ndensity: 2, num_ms_combs: 1, mus: [0, 0], ns: [2, 6], ls: [0, 0], ms_combs: [0, 0], ctildes: [-0.005307855803820088, 0.020406472945858314]}
    - {mu0: 0, rank: 2, ndensity: 2, num_ms_combs: 2, mus: [0, 0], ns: [2, 6], ls: [1, 1], ms_combs: [0, 0, 1, -1], ctildes: [-0.0032283710596011988, 0.0070305596596085488, 0.0064567421192023968, -0.014061119319217096]}
    - {mu0: 0, rank: 2, ndensity: 2, num_ms_combs: 1, mus: [0, 0], ns: [3, 3], ls: [0, 0], ms_combs: [0, 0], ctildes: [-0.00016374975080658054, -0.080788824118130126]}
    - {mu0: 0, rank: 2, ndensity: 2, num_ms_combs: 2, mus: [0, 0], ns: [3, 3], ls: [1, 1], ms_combs: [0, 0, 1, -1], ctildes: [-0.0090097655607852996, -8.0819950379212123e-05, 0.018019531121570596, 0.00016163990075842422]}
    - {mu0: 0, rank: 2, ndensity: 2, num_ms_combs: 3, mus: [0, 0], ns: [3, 3], ls: [2, 2], ms_combs: [0, 0, 1, -1, 2, -2], ctildes: [-0.0093767115928990123, 0.019833476318266419, 0.018753423185798028, -0.039666952636532846, -0.018753423185798031, 0.039666952636532853]}
    - {mu0: 0, rank: 2, ndensity: 2, num_ms_combs: 1, mus: [0, 0], ns: [3, 4], ls: [0, 0], ms_combs: [0, 0], ctildes: [0.026391154667430975, 0.04932268372232531]}
    - {mu0: 0, rank: 2, ndensity: 2, num_ms_combs: 2, mus: [0, 0], ns: [3, 4], ls: [1, 1], ms_combs: [0, 0, 1, -1], ctildes: [0.0070443371204346522, 0.0039945289973239975, -0.014088674240869303, -0.007989057994647995]}
    - {mu0: 0, rank: 2, ndensity: 2, num_ms_combs: 1, mus: [0, 0], ns: [3, 5], ls: [0, 0], ms_combs: [0, 0], ctildes: [-0.015458704582273169, -0.065835801255684029]}
